{"type":"LSTMTimeStep","options":{"inputSize":1,"inputRange":0,"hiddenLayers":[20],"outputSize":1,"decayRate":0.999,"smoothEps":1e-8,"regc":0.000001,"clipval":5,"maxPredictionLength":100,"dataFormatter":{"indexTable":{},"characterTable":{},"characters":[],"specialIndexes":[]}},"hiddenLayers":[{"inputMatrix":{"rows":20,"columns":1,"weights":[-2.015424966812134,2.0709240436553955,1.3606741428375244,-1.9865810871124268,1.3349759578704834,1.408408522605896,1.3762526512145996,2.8374218940734863,-2.9748642444610596,-2.8879427909851074,-2.0685455799102783,-2.957308769226074,2.971947193145752,-2.8100695610046387,0.815150797367096,3.9903175830841064,-3.321603298187256,1.3414411544799805,-2.295281410217285,1.3603525161743164]},"inputHidden":{"rows":20,"columns":20,"weights":[-0.020668677985668182,-0.15896277129650116,-0.0004342402389738709,0.025981178507208824,0.00044099739170633256,-0.0032590338960289955,0.0004446285020094365,-0.17322474718093872,-0.0004886791575700045,-0.0004897853941656649,0.016478797420859337,0.00046455563278868794,-0.8790008425712585,0.7084656357765198,-0.0003884976904373616,-1.478407382965088,0.0005169454379938543,-0.0004193783679511398,-0.006229322869330645,0.00043412213562987745,-0.11843032389879227,0.04484406113624573,-0.10933062434196472,0.12727227807044983,0.10769574344158173,-0.08186289668083191,0.10752125829458237,0.04678310453891754,-0.006684544496238232,-0.00819600559771061,0.07816274464130402,0.007654896471649408,3.42688250541687,-0.19013935327529907,-0.22083470225334167,4.337588310241699,-0.5091901421546936,-0.10908220708370209,0.24183134734630585,0.1093583032488823,0.000024676512111909688,-0.5235746502876282,0.000052221716032363474,-0.00001982921821763739,-0.00006426437175832689,-0.0011891182512044907,-0.000048628313379595056,-0.5249221920967102,0.0000496706816193182,0.00004278167034499347,-0.000012200392120575998,-0.0000486395692860242,-0.2549542784690857,0.09342754632234573,-0.00041084305848926306,-0.651096761226654,-0.0002100937708746642,0.00006152709829621017,-0.0017628332134336233,-0.000052175306336721405,-0.02502349764108658,-0.11684316396713257,-0.000557011051569134,0.03404628112912178,0.0006196829490363598,-0.0029403497464954853,0.0005719665205106139,-0.12368834763765335,-0.0005563517916016281,-0.0005528795882128179,0.019507572054862976,0.0005744252703152597,-0.7875581979751587,0.7222297191619873,-0.0005015888018533587,-1.4177929162979126,0.0004978679353371263,-0.000603124441113323,-0.005260758567601442,0.0005546048050746322,0.00002193825457652565,-0.4777457118034363,0.00004832096237805672,-0.000038407066313084215,-0.000006838756235083565,-0.0013094850583001971,-0.00004514952524914406,-0.479017972946167,0.0000432748747698497,0.00003356554589117877,-0.000009841903192864265,-0.000042072479118360206,-0.25094074010849,0.08160577714443207,-0.0002765023964457214,-0.6063608527183533,-0.00019191991304978728,0.00003980086330557242,-0.001548205385915935,-0.000048061905545182526,0.0000808139520813711,-0.7313643097877502,-0.0005423688562586904,0.00005868482548976317,0.0008887637523002923,-0.018740752711892128,0.0004965968546457589,-0.7378261089324951,-0.00013969192514196038,-0.00019144074758514762,-0.00002358199708396569,0.000039746981201460585,-0.30540502071380615,-0.0022215680219233036,-0.0034800926223397255,-0.7673018574714661,-0.0005547670880332589,-0.00044326073839329183,0.001828843611292541,0.0005447865696623921,0.00002620175109768752,-0.5418453812599182,0.00005594226240646094,-0.00002226609649369493,-0.00006877586565678939,-0.0011892796028405428,-0.00005228710506344214,-0.5432115197181702,0.00005216120189288631,0.000044923621317138895,-0.000013705426681553945,-0.00005108063851366751,-0.2592942416667938,0.09406735748052597,-0.0004215915978420526,-0.666296660900116,-0.00021756289061158895,0.00006590320845134556,-0.0017967794556170702,-0.00005606373451882973,0.026083143427968025,0.0011951206251978874,0.06246855854988098,-0.03888098895549774,-0.06604142487049103,0.3485789895057678,-0.0604252927005291,0.12223773449659348,1.2984132766723633,1.3693451881408691,0.00026187446201220155,-1.3153913021087646,-9.261871337890625,-1.8588011264801025,-0.03256910666823387,-0.03706560656428337,-0.07653839141130447,0.0624668225646019,0.07849308848381042,-0.0625016838312149,-0.00023540560505352914,0.47968319058418274,0.0000030556943784176838,0.00012258875358384103,0.00005708188837161288,0.008312320336699486,0.00008565292228013277,0.5023244619369507,0.008512912318110466,0.008774918504059315,0.00033152211108244956,-0.008616529405117035,-3.072222948074341,0.3607395887374878,0.00257593160495162,-2.478858232498169,-0.01253107376396656,0.0002425825223326683,-0.008789361454546452,-0.000004703426384367049,-0.0002193772088503465,0.4520685374736786,0.00006446184124797583,0.00014584507152903825,0.0000397626863559708,0.008472181856632233,0.000028826976631535217,0.4758974015712738,0.008149801753461361,0.00827226135879755,0.00030017521930858493,-0.008187293075025082,-3.094085216522217,0.3430599272251129,0.0019364663166925311,-2.4880619049072266,-0.012946628034114838,0.00031354252132587135,-0.008516386151313782,-0.00006634549936279655,-0.017217425629496574,-0.24313528835773468,-0.00037711410550400615,0.0211108960211277,0.0003618882910814136,-0.0034214919432997704,0.0003858112613670528,-0.2575872838497162,-0.0004969178116880357,-0.0004923953674733639,0.014849080704152584,0.0004887980176135898,-1.0566349029541016,0.806684672832489,0.00023373993462882936,-1.5707924365997314,0.0008519270340912044,-0.0003551203990355134,-0.006087414920330048,0.000376902666175738,-0.00021984266641084105,0.4745722711086273,0.000011186207302671392,0.00013710939674638212,0.000003305236077721929,0.008347287774085999,0.00007760564767522737,0.4976056218147278,0.008464413695037365,0.00866879802197218,0.00032726695644669235,-0.008607005700469017,-3.076165199279785,0.357578307390213,0.002399811055511236,-2.4800140857696533,-0.012576522305607796,0.0002538237313274294,-0.008539915084838867,-0.000013060499441053253,0.0010507885599508882,2.7858123779296875,0.0017813293961808085,-0.0011581627186387777,-0.0018667939584702253,-0.03566973656415939,-0.0017255023121833801,2.7962050437927246,0.0017821979708969593,0.0017275598365813494,-0.0009890501387417316,-0.0018211990827694535,0.7985445857048035,-0.021108349785208702,-0.004848882555961609,-5.968011856079102,-0.0035977044608443975,0.0018401761772111058,0.0009416732937097549,-0.0017830466385930777,-0.02952919900417328,0.3460197448730469,0.09017376601696014,0.0434839092195034,-0.06015946716070175,-0.842839777469635,-0.09596465528011322,0.1260727345943451,0.20822890102863312,0.20816297829151154,0.002173379994928837,-0.21022072434425354,-16.40363883972168,6.983100891113281,0.06889696419239044,0.522079586982727,0.33866754174232483,0.06706268340349197,-1.2963528633117676,-0.09004898369312286,-0.000013230272998043802,0.315402090549469,-0.00016875052824616432,0.000055807937314966694,0.00028398906579241157,0.0031028366647660732,0.00016111557488329709,0.3136446177959442,0.000015853804143262096,0.000011243445442232769,0.00001200214319396764,-0.00001174564295070013,-0.05273401364684105,0.013493300415575504,0.0006895277183502913,0.10719281435012817,0.00002841751484083943,-0.00012281478848308325,0.001590497326105833,0.00016901272465474904,0.00003212348383385688,-0.3743898868560791,0.00008725110092200339,-0.00010255448432872072,-0.001372316386550665,-0.000631107366643846,-0.00008182558667613193,-0.37709036469459534,-0.000022184589397511445,-0.00005000911551178433,-0.000022187050490174443,0.00006091339309932664,-0.15556876361370087,-0.011468534357845783,-0.0007782994653098285,-0.33646732568740845,-0.00012842855358030647,0.00008023993723327294,-0.00039397962973453104,-0.00008400907245231792,-0.0008823639946058393,1.8705753087997437,-0.0009608099353499711,0.0009400953422300518,0.0011745565570890903,0.010338070802390575,0.0009536110446788371,1.8617266416549683,0.014568986371159554,0.014744454994797707,0.0008983273291960359,-0.014655247330665588,-0.5935524702072144,1.046884536743164,0.005019667558372021,0.2856864929199219,-0.0029544129502028227,-0.0009624992380850017,-0.008004275150597095,0.0009609018452465534,0.00002121632860507816,-0.4880674183368683,0.000046478176955133677,-0.000016521373254363425,-0.000057617100537754595,-0.0012948886724188924,-0.000043442469177534804,-0.489185631275177,0.000044088283175369725,0.00003786370871239342,-0.00001003060879156692,-0.00004322650420363061,-0.25253504514694214,0.08484331518411636,-0.00041403924115002155,-0.6173653602600098,-0.00019461668853182346,0.00005472896373248659,-0.001558232237584889,-0.0000465777084173169,-0.00005844614133820869,-0.3503982722759247,-0.0002416514907963574,0.002118365140631795,0.00040203522075898945,-0.006034684367477894,0.00024096430570352823,-0.35470423102378845,-0.00041078520007431507,-0.0003612760338000953,0.000058218647609464824,0.0003732859040610492,-1.197674036026001,0.30601319670677185,0.0008176466217264533,-1.5341789722442627,0.0016168041620403528,-0.0002488371974322945,0.017409544438123703,0.00024162237241398543,0.00002422778561594896,-0.5232143402099609,0.00005200152736506425,-0.000020460907762753777,-0.00006420256977435201,-0.0011877594515681267,-0.000048563142627244815,-0.5245612859725952,0.000049622369260760024,0.00004274230741430074,-0.000012221621545904782,-0.000048594753025099635,-0.2548665702342987,0.09342193603515625,-0.00040923652704805136,-0.6508038640022278,-0.00020990306802559644,0.0000614917662460357,-0.0017624241299927235,-0.000052097602747380733]},"inputBias":{"rows":20,"columns":1,"weights":[-0.6649635434150696,1.9160248041152954,0.2927296757698059,-0.6309003233909607,0.31664299964904785,0.09978114813566208,0.2843269407749176,4.955752849578857,-2.027679920196533,-2.3179867267608643,-0.7044535279273987,-2.0838124752044678,2.8169381618499756,4.724676609039307,0.7400515675544739,1.1536602973937988,0.4444129168987274,0.3122705817222595,-0.48030927777290344,0.29288193583488464]},"forgetMatrix":{"rows":20,"columns":1,"weights":[-0.11827105283737183,-4.72177791595459,-0.00002053697608062066,-0.1293143332004547,0.0000673232352710329,-0.1014418751001358,-0.000009750999197422061,-4.726868629455566,-0.5828579664230347,-0.5913909077644348,-0.09164075553417206,-0.586264967918396,2.831949472427368,-2.464693784713745,-0.007092153187841177,-2.3499979972839355,-1.0464978218078613,-0.00004761849777423777,0.19272789359092712,-0.00002034069075307343]},"forgetHidden":{"rows":20,"columns":20,"weights":[-0.002979409648105502,0.03264347091317177,-0.00006210184074006975,0.003881594631820917,0.00006059502629796043,0.00001339979462500196,0.00006348804163280874,0.032707709819078445,-0.0000172546278918162,-0.000014483714949165005,0.002415273105725646,0.000016244877770077437,0.0060697016306221485,0.000799959700088948,0.000040540940972277895,0.026529932394623756,0.00005519747719517909,-0.00006193708395585418,-0.000001025114102048974,0.00006207449041539803,-0.00046313245547935367,1.9649046659469604,-0.00148349953815341,-0.0008595753461122513,0.0017025205306708813,0.008778099901974201,0.0015555249992758036,1.9661362171173096,0.0009162537753582001,0.0009700695518404245,0.0005783803062513471,-0.00098621123470366,-0.1077190637588501,-0.20441219210624695,-0.0007064988603815436,1.2115983963012695,-0.0004242541908752173,-0.0014542798744514585,0.012034391984343529,0.0014826195547357202,-1.57466260475303e-7,-0.00003201389336027205,-1.2877060839855403e-7,1.8065809265221944e-11,-5.722026585885942e-8,-3.80337041860912e-7,5.6871552800430436e-8,-0.00003229705544072203,-2.0544280943113336e-8,-1.849550734789318e-8,7.870993101732893e-8,2.0392665334156845e-8,-0.000010281863069394603,0.000021212699721218087,-2.3363980972135323e-7,-0.00004820360481971875,1.3779096263988322e-7,-6.14462223325063e-8,4.6081731852609664e-7,5.1868159545165327e-8,-0.004109194967895746,0.04537684842944145,-0.00009774875798029825,0.005941913928836584,0.00010692390060285106,0.000048198970034718513,0.00009984222560888156,0.04530494660139084,-0.00002870400930987671,-0.00002558680353104137,0.0031309009063988924,0.000029877164706704207,0.007299803663045168,0.0005750239361077547,0.000016949823475442827,0.03737059235572815,0.00008243067713920027,-0.00011092786735389382,0.0000036331512092147022,0.00009771037730388343,-1.3451304425871058e-7,-0.00012644703383557498,-1.8330140960642893e-7,-7.271511890394322e-7,-0.00010543927055550739,-0.000017991260392591357,1.318211104717193e-7,-0.00014428395661525428,-5.7597205227466475e-8,-6.807150754184477e-8,1.2620206746305485e-7,5.533566991289263e-7,-0.00001873955079645384,0.000035648929042508826,-0.000002509299520170316,-0.000023051419702824205,1.586733731073764e-7,-0.000002341754225199111,-0.000001086905058400589,1.8430478121445049e-7,-0.000004584695034282049,0.06897828727960587,-0.00007035689486656338,0.0008395609329454601,0.00015840459673199803,0.023088783025741577,0.00006727577419951558,0.06875267624855042,-0.000021701891455450095,-0.00007743800233583897,0.000012349219105090015,0.000011245643690926954,0.004710790701210499,-0.0024008837062865496,0.006021768786013126,0.06035850942134857,-0.000031676157959736884,-0.00022143108071759343,0.0008208435610868037,0.00007097263005562127,-7.309846949965504e-8,-0.00003570148692233488,-5.323944662904978e-8,4.9528232182183274e-8,-4.8486903381217417e-8,-4.6554995947190037e-7,4.9975586335904154e-8,-0.000035772169212577865,-1.7945010810649364e-8,-1.5994800151020172e-8,7.716034389204651e-8,1.742904665036349e-8,-0.0000069823536250623874,0.000022523248844663613,-8.738507517591643e-8,-0.00005162341767572798,1.317692266411541e-7,-5.901300426103262e-8,4.738320455999201e-7,5.2100279646083436e-8,-0.00023157079704105854,1.9978203773498535,-0.00042966080945916474,0.00023368693655356765,0.00020901483367197216,0.001132799661718309,0.0004208658938296139,1.9946938753128052,-0.00022000257740728557,-0.0002180665615014732,0.00022447248920798302,0.00020145652524661273,-0.04935186356306076,-0.18559972941875458,-0.00269682751968503,1.2435940504074097,0.0007113697938621044,-0.0004324873152654618,0.005965323653072119,0.00043000324512831867,-0.0020540382247418165,-0.6803238391876221,-0.00623432919383049,0.0016215546056628227,0.005654787179082632,-0.011770382523536682,0.006641403306275606,-0.4058743417263031,0.006719154771417379,0.00735373143106699,0.0031608084682375193,-0.006872364319860935,0.2787392735481262,0.9237915873527527,0.0014732122654095292,-0.46988651156425476,-0.012348697520792484,-0.0057586138136684895,0.0032134647481143475,0.006226766854524612,-0.001953462604433298,-0.6986729502677917,-0.006020999047905207,0.001547926221974194,0.005473229102790356,-0.011315664276480675,0.0064251297153532505,-0.42295363545417786,0.006584729999303818,0.007065485697239637,0.0031082690693438053,-0.006703668739646673,0.32656458020210266,0.989716649055481,0.001384628121741116,-0.4447613060474396,-0.012289930135011673,-0.005536110606044531,0.0032955787610262632,0.006013121921569109,-0.002475203713402152,0.02458624541759491,-0.00004904627348878421,0.0030474872328341007,0.00004809699021279812,0.00006486466008936986,0.000049636790208751336,0.02468511089682579,-0.00001107839125324972,-0.00000896043457032647,0.00210947566665709,0.000010326879419153556,0.0069150556810200214,0.001887332764454186,0.000038069560105213895,0.020572511479258537,0.00004612460907083005,-0.00004855446968576871,-0.0000020426912215043558,0.00004903091030428186,-0.002024119021371007,-0.6851138472557068,-0.006158225703984499,0.001618591952137649,0.005572237074375153,-0.011510550044476986,0.0065620820969343185,-0.41156455874443054,0.006652813870459795,0.007241657003760338,0.0031402166932821274,-0.006768450140953064,0.2977276146411896,0.9443326592445374,0.0014659329317510128,-0.4621821939945221,-0.012247941456735134,-0.0056992326863110065,0.003203157801181078,0.0061505865305662155,0.020036038011312485,0.44134390354156494,0.13052640855312347,-0.017502931877970695,-0.15077124536037445,-0.1316457837820053,-0.12324821203947067,0.48964324593544006,0.036783769726753235,0.028738602995872498,-0.013455395586788654,-0.0353386215865612,-12.254423141479492,-36.439823150634766,-0.5195214152336121,15.776790618896484,-0.4552539885044098,0.146381676197052,0.009183387272059917,-0.13066580891609192,-0.0015676445327699184,1.3785724639892578,-0.006471126340329647,0.0014910453464835882,0.002245004288852215,-0.0036020134575664997,0.006461127195507288,1.374045491218567,0.004851442761719227,0.004704107530415058,0.0015828192699700594,-0.004848279990255833,0.784731924533844,-1.732688069343567,0.0005867036525160074,-0.028335383161902428,-0.005312895402312279,-0.0028294313233345747,0.029615493491292,0.006470852065831423,-4.3039531760769023e-7,0.003315334441140294,-0.0000030531666652677814,-0.000008379130122193601,0.000017805314200813882,0.0007374894921667874,0.000005069206054031383,0.003349314210936427,-6.216549763848889e-7,-0.00000440381018051994,-0.000009422131370229181,0.000016809502994874492,0.00007000008190516382,-0.000010189130080107134,0.00018835693481378257,0.0024946758057922125,-0.000005148213404027047,-0.000009197086001222488,0.000023031545424601063,0.0000032102757359098177,0.000009642196346248966,-0.7682254910469055,-0.00016956486797425896,0.00045852980110794306,0.000023739663447486237,-0.005848889239132404,0.00017787636897992343,-0.760384202003479,-0.00021602842025458813,-0.00021561824542004615,0.00010246643796563148,0.00026839462225325406,-1.0381698608398438,-0.09140542149543762,-0.0002462643606122583,-0.6949537396430969,0.0005428332951851189,-0.00012863105803262442,-0.0009004610474221408,0.00017012243915814906,-0.000385422317776829,0.24258460104465485,-0.0005670359241776168,0.0004896068130619824,0.0008690054528415203,-0.000595967227127403,0.0005163171445019543,0.24910801649093628,0.01407651137560606,0.014224306680262089,0.0003481803578324616,-0.014183737337589264,0.10347076505422592,0.13515231013298035,0.001358250854536891,0.2379075139760971,-0.011434444226324558,-0.0006349937757477164,-0.0012449809582903981,0.0005681238253600895,-8.481538316118531e-8,-0.00003111308615189046,-7.821856229384139e-8,-0.0000012225430054968456,-1.7223047166226024e-7,0.0000024119040062942076,8.082730573732988e-8,-0.000031179548386717215,-2.7014751324827557e-8,-2.867402137951558e-8,8.406997409338146e-8,5.391852742064884e-9,-0.00001753870128595736,0.00002083149774989579,0.0000020182292246317957,-0.00004793583866558038,1.54725810830314e-7,-0.000002251396153951646,4.3620224232654436e-7,7.802950108271034e-8,-0.001098956330679357,0.27214691042900085,-0.0033506567124277353,0.001066036056727171,0.0035721687600016594,-0.0027300992514938116,0.003298435127362609,0.275404155254364,0.003203050931915641,0.003204051638022065,0.0010923899244517088,-0.0032256196718662977,-0.47409847378730774,-0.28358229994773865,-0.018714090809226036,0.2977396547794342,-0.0034773405641317368,-0.0035527979489415884,0.479329913854599,0.003351185703650117,-7.448849714819517e-8,-0.00003217166886315681,-5.814471037979274e-8,5.9414347219899355e-8,-6.153911868977957e-8,-4.537412792160467e-7,5.5157546086093134e-8,-0.00003224618922104128,-2.0885195795017353e-8,-1.8856209038631278e-8,7.968359483356835e-8,2.042730784523883e-8,-0.00001019406317936955,0.000021189063772908412,-8.732611433970305e-8,-0.00004829385579796508,1.3728337933116563e-7,-6.077257808101422e-8,4.6506525563927426e-7,5.662787927462887e-8]},"forgetBias":{"rows":20,"columns":1,"weights":[0,0,0,0,0,0,0,0,0,0,0,0,0,0,0,0,0,0,0,0]},"outputMatrix":{"rows":20,"columns":1,"weights":[-1.9961743354797363,6.269463539123535,-3.6872525215148926,-1.9673762321472168,-3.714961051940918,-2.8125269412994385,-3.6850011348724365,3.7775681018829346,0.9350388646125793,0.8947705030441284,-2.05147647857666,0.9311560392379761,-2.9502549171447754,3.994770050048828,-3.027496099472046,-2.0310165882110596,0.9352592825889587,-3.709265947341919,-2.133636474609375,-3.6872942447662354]},"outputHidden":{"rows":20,"columns":20,"weights":[-0.025265807285904884,-0.13790138065814972,-0.0005333902081474662,0.03204356133937836,0.0005379055510275066,-0.0032460433430969715,0.0005474695353768766,-0.1521257609128952,-0.0005252594128251076,-0.0005211597308516502,0.020216433331370354,0.0004994093324057758,-0.8746424317359924,0.7086248993873596,-0.00032049103174358606,-1.459869146347046,0.000613589771091938,-0.0005193608812987804,-0.00620366120710969,0.0005336419562809169,-0.6862971782684326,-0.8582672476768494,-1.170746088027954,0.7450218796730042,1.2909765243530273,0.7191518545150757,1.1268463134765625,-0.9311533570289612,-0.5285136699676514,-0.42333075404167175,0.5300866365432739,0.5116034746170044,3.062532663345337,6.0654473304748535,1.9792922735214233,0.9264578223228455,1.9507859945297241,-1.2624872922897339,-0.22158993780612946,1.1715960502624512,-0.00006839510751888156,0.10904568433761597,0.00003558012758730911,-0.00017950913752429187,-0.00009911063534673303,-0.010244244709610939,-0.000011958673894696403,0.09467001259326935,0.00018187481327913702,0.00011104989243904129,0.00021246515098027885,-0.00017603478045202792,-1.9176541566848755,1.2944355010986328,-0.004056536126881838,-2.6886913776397705,-0.0024090404622256756,0.00016523485828656703,-0.0123363696038723,-0.0000361469792551361,-0.0314958281815052,-0.09499649703502655,-0.0008504267898388207,0.04403746873140335,0.000954189570620656,-0.0005206913920119405,0.0008751911227591336,-0.09953981637954712,-0.0006808725302107632,-0.0005763606750406325,0.02452133782207966,0.0005505952285602689,-0.7854801416397095,0.722218930721283,-0.0013168209698051214,-1.4032567739486694,0.0006349605973809958,-0.0006816367385908961,-0.0031812225934118032,0.000851199496537447,-0.0001882446085801348,0.15649132430553436,-0.00020412310550455004,0.0006298973457887769,6.548790452143294e-7,-0.005278547294437885,0.0002106202591676265,0.13963687419891357,0.00014338985783979297,0.00009680788207333535,0.00028736924286931753,-0.00013579445658251643,-2.0016627311706543,1.2048956155776978,-0.00440417043864727,-2.569014310836792,-0.0020023679826408625,0.000019982375306426547,-0.013220671564340591,0.00020406646945048124,0.0003769095928873867,0.5601764917373657,-0.0008815666660666466,0.00002601025698822923,0.0032939778175204992,-0.015254642814397812,0.0007961408118717372,0.5670832991600037,0.00816563330590725,0.007996930740773678,0.00013950283755548298,-0.008068694733083248,-1.5574511289596558,1.8068373203277588,-0.04085129499435425,-3.0082058906555176,-0.007422121707350016,-0.0008327228715643287,-0.014870702289044857,0.0008870328892953694,-0.00003058655056520365,0.09878072142601013,0.00009527259680908173,-0.00023607697221450508,-0.00016255761147476733,-0.010058148764073849,-0.00006747317820554599,0.08694019168615341,0.00020774759468622506,0.00013475955347530544,0.00019564031390473247,-0.00020349110127426684,-1.9004515409469604,1.2985857725143433,-0.004172921646386385,-2.7223761081695557,-0.002588198520243168,0.00023042010434437543,-0.012670780532062054,-0.00009599360782885924,0.0189509280025959,0.0711682066321373,0.02581401914358139,-0.02103552222251892,-0.016581065952777863,0.06275036931037903,-0.024179697036743164,0.057365816086530685,-0.045818112790584564,-0.04585966095328331,-0.020537178963422775,0.04624423012137413,1.3487616777420044,-2.8187808990478516,-0.021519441157579422,3.037914276123047,0.06317535042762756,0.018108781427145004,0.20323212444782257,-0.025845075026154518,-0.00005956196037004702,-0.593474805355072,0.0001469620765419677,0.00005683583003701642,0.000006927695267222589,-0.009794254787266254,-0.00014449463924393058,-0.5899776816368103,0.0014724336797371507,0.001441411324776709,0.000037430549127748236,-0.001495104399509728,-0.47965145111083984,0.05526936799287796,-0.0005363778909668326,-0.8454148769378662,-0.002018983941525221,0.0001661961287027225,-0.002003333531320095,-0.00014685402857139707,-0.000032006657420424744,-0.6042087078094482,0.00017411568842362612,0.00003387851393199526,-0.00019424619677010924,-0.010350675322115421,-0.0001708458294160664,-0.6017845869064331,0.0013228962197899818,0.0012637529289349914,0.000015179446563706733,-0.0013179645175114274,-0.49521300196647644,0.05253845080733299,-0.0006173724541440606,-0.8585765957832336,-0.0019289724295958877,0.0001949368743225932,-0.0018989202799275517,-0.00017421215306967497,-0.021142730489373207,-0.22532811760902405,-0.0004582208930514753,0.026011977344751358,0.0004397308803163469,-0.0032946839928627014,0.00046711484901607037,-0.23964780569076538,-0.0005207729991525412,-0.0005125830066390336,0.018193820491433144,0.0005121543654240668,-1.048906683921814,0.8097106218338013,0.0002884793502744287,-1.5531822443008423,0.0009335254435427487,-0.00043438392458483577,-0.0060522425919771194,0.0004569583688862622,-0.00003937307701562531,-0.5937488079071045,0.00016157473146449775,0.000018102095054928213,-0.00017240250599570572,-0.010332608595490456,-0.00015860554412938654,-0.5908975005149841,0.00141836644615978,0.0013778088614344597,0.000023959211830515414,-0.0014176855329424143,-0.4802241325378418,0.052140358835458755,-0.000614579941611737,-0.8418538570404053,-0.001955422107130289,0.00017005372501444072,-0.001934017869643867,-0.00016143367975018919,1.0778838396072388,-0.982880711555481,2.0904603004455566,-1.1189661026000977,-2.2004196643829346,-1.9969063997268677,-2.0536234378814697,-1.4678659439086914,2.0507473945617676,1.8958927392959595,-1.0455955266952515,-2.029787063598633,-7.409261703491211,-15.761970520019531,-3.520535707473755,-0.9069613218307495,-3.448683500289917,2.1748759746551514,0.3417412042617798,-2.0912082195281982,0.0005495977238751948,-1.0001319646835327,0.0008154222159646451,-0.0005854501505382359,-0.0008270126418210566,-0.12215898931026459,-0.0007970049045979977,-1.0073950290679932,0.0007473814766854048,0.0007383778574876487,-0.0005441811517812312,-0.0007730888901278377,-0.6252819299697876,0.017569739371538162,-0.03194568306207657,-1.4218835830688477,-0.001098243985325098,0.0008229086524806917,0.0038140369579195976,-0.0008157133124768734,-0.00022012178669683635,1.9798260927200317,-0.00021255707542877644,0.0010759772267192602,-0.0016642475966364145,0.035206928849220276,0.0001921974471770227,1.9742789268493652,-0.0005566786858253181,-0.00041924475226551294,0.00019563302339520305,0.0004540901572909206,-0.6738898754119873,0.25491032004356384,0.01617058739066124,0.7316589951515198,0.0008254041313193738,-0.00015692359011154622,0.015107297338545322,0.00021341886895243078,-0.048695240169763565,6.502906799316406,-0.0670798197388649,0.05146411806344986,0.07362757623195648,-0.0778045505285263,0.0663168802857399,6.559940814971924,-0.04768645763397217,-0.035341907292604446,0.04208028316497803,0.0449007973074913,-4.0225830078125,-0.5590097308158875,0.393679141998291,-3.0875654220581055,0.47585663199424744,-0.07267700135707855,-0.05298149585723877,0.06709856539964676,-0.00009680521907284856,0.11292647570371628,0.00001850251828727778,0.00006568158278241754,-0.000028508762625278905,-0.010714676231145859,-0.000017616734112380072,0.11046936362981796,0.0015456421533599496,0.001557022682391107,0.00009140472684521228,-0.0015537068247795105,-0.13271954655647278,0.12429214268922806,-0.00030904082814231515,-0.15513955056667328,-0.002123691141605377,0.000016250325643341057,-0.0015393003122881055,-0.000018522603568271734,-0.00014755806478206068,0.1453906148672104,-0.00008768730913288891,-0.000007351013664447237,-0.0000042771334847202525,-0.008501025848090649,0.00010522309457883239,0.12684683501720428,0.00015147373778745532,0.00008338971383636817,0.0002681089099496603,-0.00011503884161356837,-1.9839799404144287,1.2244616746902466,-0.004126923158764839,-2.5971691608428955,-0.0021020497661083937,-0.000010249796105199493,-0.013405673205852509,0.0000876351841725409,-0.00006959253369132057,-0.45967310667037964,-0.00023434366448782384,0.00036730352439917624,0.0002649333910085261,0.012089080177247524,0.00023441719531547278,-0.45481687784194946,-0.0007188919698819518,-0.0006849517812952399,0.00007830977847333997,0.0007086058612912893,-1.223095178604126,0.2282075136899948,0.0038612298667430878,-1.4454957246780396,0.001916470006108284,-0.00025446427753195167,0.002390478039160371,0.00023425783729180694,-0.00006916156416991726,0.10929003357887268,0.00003424882743274793,-0.0001786602078936994,-0.0000993799912976101,-0.010265008546411991,-0.000011432060091465246,0.09482057392597198,0.00018137700681108981,0.0001107797070289962,0.00021376798395067453,-0.0001755334815243259,-1.9179896116256714,1.2943817377090454,-0.004054792691022158,-2.688030958175659,-0.002405327744781971,0.0001644748408580199,-0.01232958398759365,-0.00003486774585326202]},"outputBias":{"rows":20,"columns":1,"weights":[-0.6536543369293213,-9.080952644348145,-0.5180139541625977,-0.6188337802886963,-0.36571428179740906,-1.152601718902588,-0.5424734354019165,2.211246967315674,0.22569559514522552,0.19647890329360962,-0.69781893491745,0.2207411229610443,7.049426555633545,0.6241949200630188,0.5133273005485535,7.148779392242432,0.7035461068153381,-0.4015287756919861,-0.8562654852867126,-0.5175215005874634]},"cellActivationMatrix":{"rows":20,"columns":1,"weights":[0.8721407651901245,-2.4632983207702637,1.1335610151290894,-0.8551300168037415,-1.1224281787872314,0.2354462444782257,-1.1394517421722412,-2.403782844543457,1.0458005666732788,1.0312161445617676,-0.8939265012741089,-1.0423879623413086,-1.805389404296875,-3.4370481967926025,-0.4660320281982422,-2.377599000930786,-0.8271355628967285,1.1251789331436157,-0.9399593472480774,-1.1334431171417236]},"cellActivationHidden":{"rows":20,"columns":20,"weights":[-0.00034279978717677295,-0.29400092363357544,0.00004731219814857468,0.00037312257336452603,-0.00005761751890531741,-0.001886327168904245,-0.00004494959648582153,-0.2945740818977356,-0.000010629651114868466,-0.00000651745767754619,0.0002841420064214617,0.0000071010349529387895,-0.11770513653755188,0.09134265780448914,-0.00037995222373865545,-0.4012293517589569,-0.00009007277549244463,0.000052262468670960516,-0.0016303334850817919,-0.00004734261165140197,-0.0006321161636151373,-0.14829201996326447,-0.0009928210638463497,0.0005199739243835211,0.0009066819329746068,-0.0035029270220547915,0.0010236945236101747,-0.15808287262916565,-0.001376484869979322,-0.0013049662811681628,0.0005788502749055624,0.0013520043576136231,-1.0936306715011597,1.8544766902923584,0.005806108471006155,-1.6657307147979736,0.003870525164529681,-0.0009399760747328401,-0.007381995674222708,0.0009921344462782145,0.000018699463907978497,-0.34747689962387085,0.000041289931687060744,-0.000016716967365937307,-0.00004950414222548716,-0.0006989038665778935,-0.000039500853745266795,-0.34770283102989197,0.000030043398510315455,0.000025442624973948114,-0.000012604632502188906,-0.000029356533559621312,-0.1576688587665558,0.0317361019551754,-0.0002527512551750988,-0.3927833139896393,-0.00013907314860261977,0.00004776179775944911,-0.000994526082649827,-0.000041849871195154265,0.0003440703439991921,0.2818107604980469,-0.00004279524364392273,-0.0005170103395357728,0.00004457515387912281,0.0010797763243317604,0.00004115563933737576,0.28099149465560913,-0.000015154629181779455,-0.000017616273908060975,-0.000273543264484033,0.00001405596594850067,0.10449325293302536,-0.10176963359117508,0.00045402816613204777,0.38294047117233276,0.00010544747783569619,-0.00005303498255671002,0.0015805404400452971,0.0000426831902586855,-0.000017209453289979137,0.3245431184768677,-0.000039005059079499915,-0.000009843109182838816,0.00005124420204083435,0.0006377942045219243,0.000036895515222568065,0.3248438835144043,-0.000027091700758319348,-0.000022973112209001556,0.00001141769371315604,0.000025915120204444975,0.15632867813110352,-0.02716325968503952,0.00021392261260189116,0.3734608292579651,0.0001314245309913531,-0.00003821548671112396,0.0009092706022784114,0.00003905199628206901,0.00005295498704072088,-1.7350467443466187,0.0004074868920724839,0.000018588347302284092,-0.00006777670205337927,-0.04101438447833061,-0.0004935962497256696,-1.7370229959487915,0.0019128158455714583,0.0018374754581600428,-0.00004616899605025537,-0.001864960533566773,-0.08844966441392899,0.27004310488700867,-0.06902914494276047,-1.6010656356811523,-0.002040663966909051,0.00019986623374279588,0.0326661691069603,-0.0004070235008839518,-0.000019712399080162868,0.35699906945228577,-0.000043915944843320176,0.00001736338708724361,0.00005180763400858268,0.0007038096082396805,0.000041558509110473096,0.3572268486022949,-0.000031357725674752146,-0.000026544244974502362,0.000013449340258375742,0.00003061012830585241,0.159786194562912,-0.0319807231426239,0.0002662328479345888,0.4002523124217987,0.00014264685160014778,-0.00005003513797419146,0.0010192164918407798,0.00004399595854920335,-0.0001869492552941665,-0.07108091562986374,-0.000556133920326829,0.00022435466235037893,0.0005607318598777056,0.0018042956944555044,0.0005718856700696051,-0.07924361526966095,-0.0011420904193073511,-0.001120227505452931,0.00017457717331126332,0.0011418063659220934,-0.7295716404914856,1.7748678922653198,0.003991073928773403,-1.822353482246399,0.0029000872746109962,-0.0005043774144724011,-0.0045186616480350494,0.0005558609263971448,-0.000006121268143033376,-0.39360424876213074,0.00011366781836841255,-0.00005374143802328035,-0.00012132666597608477,0.014589971862733364,-0.00011163954332005233,-0.39604324102401733,-0.00009398287511430681,-0.000063073675846681,0.000009822221727517899,0.000057890960306394845,-0.27668094635009766,-0.01763329841196537,0.0015830396441742778,-0.3900599777698517,-0.00009851819049799815,0.00012101606262149289,0.0008558187982998788,-0.00011374853056622669,-0.0000025321817247458966,-0.39597898721694946,0.00011621556041063741,-0.000029123451895429753,-0.00012718667858280241,0.014731147326529026,-0.0001140681270044297,-0.39847248792648315,-0.00005487225280376151,-0.00006778562965337187,0.0000064305568230338395,0.000056933535233838484,-0.2787421643733978,-0.01828947477042675,0.00162012770306319,-0.39219391345977783,-0.00011037608055630699,0.00012329852324910462,0.0008397363126277924,-0.00011628070205915719,0.0002445619320496917,0.36352115869522095,-0.00005865535786142573,-0.00022898681345395744,0.00007097386696841568,0.0019435782451182604,0.00005614838300971314,0.36392584443092346,-0.00006321079126792029,-0.00005815428085043095,-0.00017790970741771162,0.0000628171328571625,0.1260012835264206,-0.08387104421854019,0.0004138834192417562,0.42591148614883423,0.0001605930447112769,-0.00006317029328783974,0.0016683805733919144,0.000058675625041360036,0.000005721445177186979,0.3932700753211975,-0.00011372547305654734,0.000011243993867537938,0.00012128423986723647,-0.014709125272929668,0.00011188523058081046,0.39582115411758423,0.00005681998300133273,0.00006209787534317002,-0.000009666495316196233,-0.00005959881309536286,0.27725690603256226,0.017654195427894592,-0.0015193027211353183,0.3900056779384613,0.00010068599658552557,-0.00011817111953860149,-0.0008532038773410022,0.00011379118222976103,-0.08515886962413788,-2.1764626502990723,-0.17196613550186157,0.07875052839517593,0.16858631372451782,-0.31978315114974976,0.17623235285282135,-2.1090121269226074,-0.21910715103149414,-0.21111337840557098,0.09079040586948395,0.21818315982818604,-8.475738525390625,-15.853703498840332,-0.023134293034672737,-18.307844161987305,0.039799563586711884,-0.1697477549314499,0.03156989440321922,0.17188863456249237,0.14415954053401947,-4.954776763916016,0.21200929582118988,-0.1495698094367981,-0.21167780458927155,-0.1424131989479065,-0.20995768904685974,-4.978002548217773,0.14010873436927795,0.13925524055957794,-0.14346368610858917,-0.14106568694114685,-13.223862648010254,-0.6335216760635376,-0.27893123030662537,-15.7974853515625,-0.18953175842761993,0.21172478795051575,-0.2613508701324463,-0.21204116940498352,0.000012693413736997172,-0.5888782143592834,0.000006581463821930811,0.0000056426224546157755,0.0001473570882808417,-0.001099166925996542,-0.000009730484634928871,-0.5898273587226868,-0.000017210197256645188,-0.000023099275495042093,-0.00001027405869535869,0.000018282236851518974,-0.02939968928694725,-0.004574520047754049,-0.0004392992123030126,-0.317905992269516,-0.00010498141637071967,-0.000019323459127917886,-0.0005784094682894647,-0.00000626746714260662,-0.000011569899470487144,0.2493494153022766,-0.000020401457732077688,-0.0000065461063059046865,0.000024082215531961992,0.00016841485921759158,0.00001892920772661455,0.24980835616588593,-0.000019059885744354688,-0.000015908333807601593,0.000006556699645443587,0.000018259912394569255,0.10439256578683853,0.009549758397042751,0.00010458021279191598,0.22378186881542206,0.00008744777005631477,-0.000022909558538231067,0.000012228421837789938,0.00002043104723270517,0.000017921067410497926,-0.04010514169931412,-0.00005675360807799734,-0.00003988132084487006,0.00005243301347945817,-0.014481806196272373,0.000056450386182405055,-0.037046998739242554,0.00006721834506606683,0.0000672344904160127,-0.00001886079007817898,-0.00006761853728676215,0.10717734694480896,-0.02093912474811077,-0.0013117921771481633,0.05455745756626129,-0.0000628024572506547,-0.00005881760807824321,-0.0008486274746246636,0.000056756231060717255,0.000017474159903940745,-0.3297002911567688,0.00003941867180401459,-0.000014989203918958083,-0.000046683027903782204,-0.0007950987201184034,-0.00003731791002792306,-0.32987645268440247,0.000027885142117156647,0.000023556680389447138,-0.000011625411389104556,-0.000027259009584668092,-0.15676341950893402,0.028398960828781128,-0.0002677302109077573,-0.37850916385650635,-0.00013353013491723686,0.00004484279270400293,-0.0009303230326622725,-0.00003948652738472447,-0.00004744212856166996,0.5609738230705261,-0.0000994395450106822,-0.00004998266012989916,0.00006311802280833945,-0.000013646063962369226,0.00009611683344701305,0.5618686079978943,-0.00005426719508250244,-0.00005613984103547409,0.00004155315400566906,0.00006838688568677753,0.1819963902235031,-0.014690694399178028,0.0009535306598991156,0.49894148111343384,0.00020231716916896403,-0.00009624243102734908,0.000039872258639661595,0.00009941414464265108,-0.000018814196664607152,0.3472968637943268,-0.00004178998642601073,0.000016388505173381418,0.0000494285486638546,0.0007000328041613102,0.000039461901906179264,0.3475272059440613,-0.000030019466066733003,-0.000025419340090593323,0.000012578914720506873,0.00002932202914962545,0.15762728452682495,-0.03172929584980011,0.00025325728347525,0.3926328420639038,0.00013902955106459558,-0.000047687426558695734,0.0009937238646671176,0.0000418054660258349]},"cellActivationBias":{"rows":20,"columns":1,"weights":[0.1818508803844452,-0.7772469520568848,0.22735807299613953,-0.19891507923603058,-0.2425229251384735,-1.7388330698013306,-0.22134721279144287,-1.0509744882583618,0.209675133228302,0.20427188277244568,-0.15520116686820984,-0.21000754833221436,-1.6824543476104736,-0.3924427628517151,-0.7741955518722534,-0.6825454235076904,-0.5192082524299622,0.23955994844436646,0.16239814460277557,-0.22746306657791138]}}],"outputConnector":{"rows":1,"columns":20,"weights":[1.3894555568695068,16.4401798248291,1.8098249435424805,-1.3194425106048584,-1.6993095874786377,1.8275960683822632,-1.8373034000396729,15.9407958984375,1.0035569667816162,1.036048173904419,-1.5317918062210083,-1.0074902772903442,0.7913495302200317,1.030350685119629,0.30379632115364075,-2.2672879695892334,-0.15186649560928345,1.7266206741333008,-1.7214211225509644,-1.8092387914657593]},"output":{"rows":1,"columns":1,"weights":[26.506669998168945]},"inputLookup":{"h":0,"d":1,"a":2},"inputLookupLength":3,"outputLookup":{"winner":0},"outputLookupLength":1}