{"type":"LSTMTimeStep","options":{"inputSize":1,"inputRange":0,"hiddenLayers":[20],"outputSize":1,"decayRate":0.999,"smoothEps":1e-8,"regc":0.000001,"clipval":5,"maxPredictionLength":100,"dataFormatter":{"indexTable":{},"characterTable":{},"characters":[],"specialIndexes":[]}},"hiddenLayers":[{"inputMatrix":{"rows":20,"columns":1,"weights":[-1.5957847833633423,-4.6555585861206055,-6.851052761077881,0.44815191626548767,-2.374497413635254,2.8356165885925293,-4.30225133895874,-4.8429694175720215,-1.3259258270263672,-4.1549906730651855,3.696939706802368,1.5845286846160889,-3.740433931350708,4.476386547088623,3.6915552616119385,-5.353514671325684,2.359926462173462,2.797947406768799,5.650532245635986,-1.1131329536437988]},"inputHidden":{"rows":20,"columns":20,"weights":[0.07896590232849121,0.01531684584915638,-0.5751835703849792,0.31639137864112854,-0.008452805690467358,-0.011999142356216908,-1.101108431816101,0.08711922913789749,0.10177301615476608,-0.032541751861572266,0.07414598762989044,-0.029372921213507652,0.1923646330833435,-3.9273409843444824,0.0865345373749733,0.19790123403072357,-1.0007826089859009,-0.057156194001436234,0.9472508430480957,-0.000023226153643918224,0.030284548178315163,-0.40784257650375366,0.6808203458786011,-5.318497180938721,-0.7268620729446411,-10.856062889099121,9.183448791503906,0.771736204624176,-0.6377884745597839,10.216673851013184,-3.1751768589019775,-0.12577316164970398,-3.4972004890441895,2.1700594425201416,1.7300090789794922,1.0004851818084717,-4.325035095214844,2.431175947189331,-2.6204895973205566,0.00961210671812296,0.2445899397134781,-1.0091580152511597,7.434571266174316,-7.90910005569458,-0.6293492913246155,-12.737478256225586,-18.061870574951172,3.068654775619507,-1.0724979639053345,-6.228256702423096,-3.932616710662842,0.14655452966690063,2.9249608516693115,-8.776026725769043,7.7306227684021,2.9611682891845703,-2.5065932273864746,29.820816040039062,10.351948738098145,0.0482524111866951,-0.025576157495379448,2.020552396774292,3.039006471633911,-9.786014556884766,-0.11926479637622833,-2.0704269409179688,14.237839698791504,-3.899568796157837,-4.274666786193848,2.150034189224243,-3.2593603134155273,-0.4404512345790863,-4.434845447540283,0.9958145618438721,-2.898883581161499,4.710018634796143,-10.1277437210083,8.292413711547852,1.6558818817138672,0.005320971366018057,0.03941550850868225,-0.07095208764076233,-2.931241273880005,7.4185404777526855,-0.36480093002319336,0.4076516032218933,-2.638882637023926,-0.11373018473386765,3.033430814743042,-0.2823541760444641,-6.300866603851318,-0.03201407566666603,-2.0742878913879395,-0.8675558567047119,0.9357736706733704,6.574857711791992,-2.640465497970581,0.12708571553230286,1.8419133424758911,-0.0047916085459291935,0.0874452069401741,-4.156332492828369,-4.004421234130859,-5.649820327758789,0.044475894421339035,4.011573314666748,1.7090888023376465,2.470262289047241,-0.5185720324516296,-6.204409599304199,-3.7619123458862305,0.23172347247600555,-8.301727294921875,-2.3076181411743164,-26.00422477722168,0.4893590211868286,1.729442834854126,14.196491241455078,5.060868263244629,0.015028771013021469,-0.2529318034648895,0.32399627566337585,8.643730163574219,1.986619472503662,-0.36363571882247925,-2.0203804969787598,-22.24799346923828,1.0158100128173828,9.206426620483398,6.49233865737915,10.486199378967285,0.02219529077410698,6.318154811859131,0.9437562227249146,-1.8785316944122314,3.623699426651001,-4.459506511688232,3.53399658203125,7.075791358947754,-0.034220337867736816,0.009105026721954346,-0.22054602205753326,-0.9804137349128723,-5.835484504699707,0.38512158393859863,2.2281599044799805,-24.074201583862305,-1.7138553857803345,-1.6257723569869995,-5.762881755828857,-6.8538031578063965,0.04496067389845848,-0.2144746631383896,-1.8253346681594849,1.0658100843429565,2.521066904067993,4.313720703125,3.821753978729248,-12.952614784240723,0.006912690121680498,0.009337603114545345,0.47834378480911255,-3.14742112159729,-3.687101364135742,-0.27383124828338623,2.918323040008545,-7.258052825927734,0.058287687599658966,-2.049609661102295,-0.8179767727851868,2.4050793647766113,0.013615109026432037,10.11315631866455,-2.0636210441589355,-0.4167341887950897,1.4633127450942993,-3.7388999462127686,-0.4022745192050934,2.295448064804077,0.03957037627696991,-0.15863986313343048,2.487799644470215,2.4713127613067627,-1.8081834316253662,0.04402880370616913,-12.960497856140137,-14.339334487915039,-0.4709727168083191,0.04007239639759064,-8.468276023864746,-11.658343315124512,-1.9848430156707764,-5.467592239379883,1.8087728023529053,-3.963334083557129,0.21687407791614532,10.605264663696289,6.707374572753906,-21.71669578552246,-0.16868436336517334,-0.03237598389387131,-0.11425703018903732,-1.036961317062378,-1.4693293571472168,-0.004649299196898937,0.08758404105901718,-3.470529079437256,0.0076184566132724285,0.164413720369339,0.22431042790412903,0.1334344446659088,-0.10256650298833847,0.2567322850227356,-1.5329595804214478,-0.7486477494239807,-0.9132376909255981,-4.024877071380615,0.7316870093345642,1.3227628469467163,-0.0021804883144795895,-0.006542690098285675,-0.13691642880439758,-5.094158172607422,-0.4042539596557617,0.5739871263504028,0.018756169825792313,3.3318188190460205,0.42936626076698303,0.5181692838668823,-0.013568639755249023,-3.905294895172119,-0.34653863310813904,-9.001157760620117,-0.3388920724391937,0.9936394095420837,6.351069450378418,4.160122871398926,0.711377739906311,-3.665541887283325,0.002174611436203122,-0.09565187245607376,0.31787222623825073,-0.7301045060157776,1.9361112117767334,0.5874921679496765,-6.4168314933776855,-1.2866283655166626,0.7873952388763428,0.2575928270816803,-1.6561692953109741,-1.089935302734375,-0.39439886808395386,10.350189208984375,-4.462862968444824,-1.126507043838501,-0.543525755405426,-4.730266571044922,0.06317280232906342,5.431758403778076,-0.07430930435657501,-0.05919801816344261,0.0019529721466824412,-0.12148579210042953,0.8620704412460327,-0.016614334657788277,0.012611609883606434,2.1140480041503906,0.101887047290802,0.020981835201382637,-0.10724685341119766,-0.6847983002662659,-0.06720798462629318,-0.24046707153320312,4.905320167541504,0.043897710740566254,0.15485882759094238,3.2883710861206055,-0.19599805772304535,0.010609682649374008,0.00023017941566649824,0.005318405106663704,-9.556947708129883,3.253431558609009,3.956447124481201,-0.30540063977241516,6.213940620422363,-12.044116020202637,1.2369972467422485,-0.29057106375694275,-26.483882904052734,8.479205131530762,0.5645700097084045,-6.436282157897949,-5.567600250244141,0.5297790765762329,3.5718002319335938,0.4869791865348816,22.925125122070312,15.6538667678833,0.04947182536125183,0.04070276767015457,-0.43721145391464233,2.73663330078125,-7.650261878967285,-0.9831533432006836,0.22752943634986877,-18.012264251708984,-2.6542978286743164,-0.022228147834539413,-7.26596736907959,-4.921740531921387,0.4346067011356354,-6.6121039390563965,0.11147768795490265,1.8975468873977661,-0.14850328862667084,-4.477041721343994,-7.716763973236084,1.184952735900879,-0.004001117777079344,0.11432866007089615,0.6621520519256592,0.06472686678171158,-0.03408372029662132,0.33990004658699036,-1.5918245315551758,3.6893973350524902,1.3776355981826782,0.021875208243727684,3.377272367477417,-1.0777522325515747,0.2694542407989502,-1.0216385126113892,-3.845749855041504,-3.819399833679199,0.35962098836898804,-0.7957322001457214,2.7213306427001953,18.052581787109375,0.12274215370416641,0.02694433182477951,0.6910108923912048,6.922168254852295,-0.5088227391242981,0.38257554173469543,1.337420105934143,7.3563055992126465,-0.28742146492004395,1.659383773803711,1.6726830005645752,-1.6680084466934204,0.17508743703365326,-3.9737296104431152,-1.4935656785964966,0.6214309334754944,4.179653167724609,2.858257293701172,-1.2313724756240845,2.617640972137451,0.032517433166503906,0.04497137665748596,0.9869986176490784,15.511284828186035,3.342986583709717,-0.31056785583496094,1.6070952415466309,-3.612698554992676,1.2020163536071777,3.033813953399658,-0.6872357726097107,-8.579480171203613,0.4186050593852997,-10.30501937866211,-7.868696689605713,0.7332927584648132,0.31010720133781433,-5.405883312225342,25.835304260253906,-21.688819885253906,-0.0772509053349495,-0.0021021205466240644,0.007189393974840641,0.0008022229885682464,0.5184081196784973,-0.017435086891055107,0.038674984127283096,-2.196045160293579,0.007863860577344894,0.010296893306076527,-0.01026002038270235,0.34566229581832886,0.0017345246160402894,-0.7861350774765015,-2.6146302223205566,-0.09329748153686523,0.03642489016056061,-1.0920336246490479,-0.8873169422149658,1.6432348489761353,-0.00463118078187108]},"inputBias":{"rows":20,"columns":1,"weights":[-0.3993966579437256,-4.684442520141602,30.057405471801758,-12.587532043457031,-1.9875351190567017,0.022620733827352524,5.039626598358154,10.07040786743164,-2.5047667026519775,1.0691109895706177,0.39640775322914124,0.013854351826012135,-0.6702154278755188,1.95125150680542,-4.947484016418457,-0.6128551363945007,-6.552865028381348,3.6432032585144043,-1.898260474205017,-1.7955156564712524]},"forgetMatrix":{"rows":20,"columns":1,"weights":[-0.016295205801725388,-1.6190341711044312,-5.791284084320068,0.13004495203495026,0.42710837721824646,-0.07199615985155106,-6.383149147033691,-2.04193115234375,-0.36365458369255066,-1.0265264511108398,-0.17758671939373016,-0.25715941190719604,4.045410633087158,3.5428626537323,8.557251930236816,-0.3560304641723633,2.598323106765747,3.8595523834228516,-7.136045455932617,-0.034167878329753876]},"forgetHidden":{"rows":20,"columns":20,"weights":[0.027467014268040657,-0.009506093338131905,-0.030546853318810463,-0.0001777041907189414,-0.0036924032028764486,-0.0015403724974021316,0.0009206551476381719,0.00040159732452593744,-0.026945851743221283,0.00005246213186183013,0.00029513693880289793,0.0005580936558544636,-0.0013292917283251882,-0.024709103628993034,-0.0012222055811434984,-0.023035498335957527,-0.05433926731348038,-0.0029529882594943047,0.054083455353975296,-0.0007579616503790021,-0.0193084254860878,-0.0901067703962326,-0.9648875594139099,-0.4375140070915222,-0.029345881193876266,-0.04813874140381813,-0.9357356429100037,-0.04589608684182167,0.023598438128829002,-0.020533110946416855,0.45552289485931396,0.013349859975278378,-0.8077274560928345,-0.6970946192741394,0.20171330869197845,0.012383644469082355,-0.4513358473777771,0.07575081288814545,0.2790614068508148,0.0000424949757871218,-0.0014953073114156723,0.1139688640832901,5.456608295440674,0.9205512404441833,-0.004621180240064859,-1.8040441274642944,6.654068470001221,0.03830010071396828,0.09702286869287491,4.939898490905762,-6.036924839019775,-0.03510318696498871,-0.2599845826625824,4.772802829742432,3.631704092025757,-0.48754775524139404,0.25191572308540344,-1.0514189004898071,-6.387047290802002,-0.000556166167370975,-0.03979063034057617,0.008179941214621067,3.4208762645721436,0.8893799185752869,-0.1751110553741455,0.29326725006103516,0.7466327548027039,0.004799783229827881,1.2330622673034668,0.011296035721898079,-3.5977156162261963,0.025243569165468216,4.7000412940979,3.3766534328460693,-1.9939372539520264,1.660711646080017,2.2870097160339355,-0.37426790595054626,2.479050874710083,0.007806667126715183,0.0033328079152852297,0.010710799135267735,0.024394402280449867,0.03407396376132965,0.06098564714193344,-0.002398564713075757,0.05617664381861687,-0.000039185590139823034,0.0031279497779905796,-0.00004182484917691909,0.10823995620012283,-0.00012945447815582156,-0.06133466958999634,0.2781558632850647,-0.035360123962163925,-0.06664565205574036,0.042665041983127594,0.40427058935165405,-0.21296165883541107,0.0014658088330179453,-0.0015541833126917481,-0.017614010721445084,0.3996322751045227,-0.019207973033189774,0.0030809096060693264,0.1684899479150772,0.6819427013397217,-0.520923912525177,0.02735857479274273,0.02683730237185955,-0.1309588998556137,0.00725712301209569,-0.05743548274040222,1.331033706665039,-0.8425079584121704,-0.5037379264831543,0.3309371769428253,-0.004152448382228613,-0.14363791048526764,0.00025369590730406344,-0.0046476935967803,0.014340692199766636,-8.284841537475586,-3.600346803665161,0.04914742335677147,-1.7497512102127075,13.64999008178711,-0.5255008935928345,-0.025202490389347076,-1.52446448802948,-3.2535314559936523,0.006901784334331751,0.7852367162704468,0.2186984419822693,2.683992385864258,0.16092665493488312,-1.3319895267486572,-0.6283736824989319,8.98801326751709,-0.000470790226245299,-0.0014451638562604785,0.0031941242050379515,-0.6966221332550049,0.0019998473580926657,0.0012468495406210423,0.0333641916513443,0.05329129099845886,0.09597928076982498,-0.0034950089175254107,-0.006578377448022366,-0.0033747535198926926,0.004564923699945211,-0.0011008955771103501,-1.5581475496292114,-0.13698086142539978,-0.000036796267522731796,-1.3731399774551392,0.06864485889673233,0.16544362902641296,-0.00044326393981464207,-0.03629651665687561,0.03183736652135849,0.07344766706228256,-0.06938505917787552,0.011440658941864967,-0.023161767050623894,-0.22097042202949524,0.00010444701911183074,-0.09201283752918243,-0.000136285787448287,-0.04241444915533066,-0.1823788434267044,-0.13354389369487762,-1.8274357318878174,0.08186314254999161,-0.3031438887119293,-1.044031023979187,0.034437891095876694,0.0628594234585762,0.000029298140361788683,-0.0001273389207199216,-0.3909981846809387,4.009857654571533,-0.12655797600746155,-0.00005675941793015227,5.124186038970947,4.080521106719971,0.16514748334884644,-0.00046653838944621384,3.4098455905914307,-0.6696852445602417,-0.00024230229610111564,0.014224850572645664,-0.8519046902656555,-5.035224914550781,0.011840499937534332,-5.551980495452881,-0.05516902729868889,3.293362855911255,-0.00006684279651381075,-0.0006362833664752543,-0.00836494192481041,0.11925650388002396,-0.9886569976806641,-0.0037035061977803707,-0.01058212947100401,0.6738673448562622,0.0020311828702688217,0.016513092443346977,0.014313900843262672,1.2717862129211426,0.013328369706869125,0.04166850447654724,-0.6949471235275269,0.06076309084892273,-0.5296421051025391,-0.7323521971702576,0.40950629115104675,-0.061964526772499084,-0.002006982685998082,0.007863670587539673,-0.012123465538024902,0.49516960978507996,0.0032090195454657078,-0.009865672327578068,0.012837644666433334,-0.07927078753709793,0.0004293993697501719,-0.023844271898269653,0.000947322288993746,0.23649129271507263,0.005408757831901312,0.040854040533304214,-0.2233453094959259,0.4904913902282715,0.12316595762968063,-0.7254189252853394,0.28842929005622864,0.058561861515045166,-0.0006831073551438749,-0.2385701984167099,-0.19284604489803314,-11.107511520385742,6.661365032196045,-0.1642162948846817,10.10594367980957,5.438337326049805,-0.19085557758808136,1.2251752614974976,-0.008517298847436905,9.268603324890137,-0.04678367078304291,-6.31179141998291,-1.0531994104385376,-3.9193994998931885,2.6137266159057617,-4.824429988861084,-6.879875659942627,-6.5997843742370605,-0.014641021378338337,-0.0012245745165273547,-0.4132337272167206,3.4960527420043945,-3.8843014240264893,0.7279621958732605,-4.393463134765625,0.9524123668670654,1.050649642944336,-1.019883155822754,2.773667573928833,6.252776622772217,0.47574806213378906,-2.177794933319092,7.726576328277588,0.22174756228923798,-3.148226737976074,16.798505783081055,-3.869783401489258,-2.703221082687378,-0.0011904943967238069,0.0016485590022057295,-0.21003909409046173,7.199445724487305,-0.9216583371162415,0.006588819436728954,0.6316474080085754,-6.178709506988525,0.36555081605911255,0.14757969975471497,-1.2601780891418457,-3.0013315677642822,-0.0037744701839983463,0.07662475109100342,2.4052724838256836,-12.259448051452637,0.035924941301345825,-0.9673824906349182,8.076744079589844,2.6405885219573975,-0.0006494360859505832,-0.0075745489448308945,0.014774441719055176,0.0589180588722229,0.07113702595233917,0.013025324791669846,-0.013196507468819618,-0.0733417347073555,0.0001346145145362243,-0.006486613769084215,-8.591088089815457e-7,-0.027569374069571495,0.014510923996567726,0.07889046519994736,-0.7279022932052612,0.4604301452636719,0.9194024801254272,0.7900258302688599,-0.014182432554662228,0.43566396832466125,0.00014419185754377395,0.01907023973762989,1.7860525846481323,-0.23548640310764313,9.515069007873535,1.571452021598816,7.106541156768799,-11.650278091430664,0.19733494520187378,-1.5295994281768799,1.9915028810501099,3.5632424354553223,0.046105705201625824,-6.532642364501953,4.191651821136475,-11.885528564453125,0.6057395339012146,16.8497257232666,-1.827292561531067,-9.39729118347168,0.006648296490311623,0.00048777274787425995,-0.005787687376141548,-3.247148036956787,-0.7744309306144714,0.16250737011432648,-0.05114290863275528,0.180588960647583,-0.02708887867629528,-0.2984096109867096,-0.08814256638288498,1.8831998109817505,-0.0008578517590649426,0.5337309241294861,-2.3974595069885254,0.03779580444097519,-2.5795984268188477,-2.702777862548828,6.2115607261657715,-0.8904488682746887,0.000019532562873791903,0.0017182519659399986,0.25087228417396545,-6.876245021820068,1.4275603294372559,0.8448082804679871,0.16015943884849548,9.727161407470703,0.7985394597053528,-0.03669477254152298,-1.2040055990219116,3.62432599067688,0.305177241563797,-7.731761455535889,0.746911346912384,0.9566466212272644,0.26440054178237915,9.808934211730957,1.441366195678711,-5.70937442779541,-0.00017740628391038626,0.0010886923409998417,-0.00024772059987299144,-0.006627419963479042,-0.014622148126363754,0.0030039227567613125,0.0005294564762152731,-0.001180174294859171,0.00014846917474642396,0.00039950560312718153,-0.00013868574751541018,-0.0006545429932884872,0.0016448220703750849,0.001880785683169961,-0.027129704132676125,-0.015664314851164818,-0.0010875125881284475,-0.027598293498158455,-0.0024146600626409054,0.0011526576709002256,0.000836755963973701]},"forgetBias":{"rows":20,"columns":1,"weights":[0,0,0,0,0,0,0,0,0,0,0,0,0,0,0,0,0,0,0,0]},"outputMatrix":{"rows":20,"columns":1,"weights":[-1.63302743434906,8.978218078613281,-0.8491559624671936,5.323143482208252,-1.012541651725769,-3.600297689437866,9.71893310546875,2.1467809677124023,-2.2177438735961914,0.8508334159851074,0.8952248096466064,-3.3800225257873535,3.6271278858184814,4.555999279022217,-4.104073524475098,-6.332461357116699,2.739295244216919,-4.5488505363464355,-1.2411952018737793,-1.114404320716858]},"outputHidden":{"rows":20,"columns":20,"weights":[-0.0043908944353461266,0.03413268178701401,-0.5076043605804443,0.09222210943698883,0.0756388008594513,-0.052208639681339264,-1.1174499988555908,0.08152391016483307,0.041944123804569244,-0.033824943006038666,0.07390228658914566,-0.011668581515550613,0.19498321413993835,-3.9122819900512695,0.05508887395262718,0.19156865775585175,-0.9572786688804626,-0.0570162795484066,0.9725914597511292,-0.00014640094013884664,-0.19500933587551117,0.11746363341808319,-3.577235221862793,5.862308025360107,-0.6196072697639465,-4.976974010467529,-1.5677438974380493,0.5013127326965332,-0.3376486599445343,5.109655857086182,-14.978135108947754,0.02189376763999462,-1.5007539987564087,-0.2432606965303421,8.301793098449707,1.712848424911499,-0.8006827235221863,4.4208664894104,1.4596474170684814,0.00457661971449852,1.1693391799926758,-2.6922712326049805,8.916921615600586,-8.642528533935547,0.42018264532089233,-3.92236065864563,-23.33028793334961,-0.27090081572532654,-1.2376960515975952,7.115702152252197,-17.7407283782959,-0.7653055191040039,2.3860490322113037,-7.172723293304443,-3.782691717147827,4.003992557525635,-1.886810064315796,3.7770450115203857,2.4789531230926514,0.3103766441345215,-0.032876305282115936,1.799362301826477,-4.131396293640137,-5.0506086349487305,-0.08275218307971954,-8.723252296447754,-5.459568023681641,-0.8833997249603271,0.7576516270637512,-4.228043556213379,1.969132661819458,-0.3097250759601593,-1.024549961090088,-4.698487758636475,4.936212539672852,2.481393814086914,-13.428633689880371,-6.142141819000244,-0.9829544425010681,-0.005072963889688253,-0.03287753835320473,0.266474187374115,-0.8971185088157654,-0.39804381132125854,-0.5055910348892212,1.1551461219787598,0.2806015908718109,-0.22238969802856445,0.46517297625541687,-0.15728527307510376,-2.5894761085510254,-0.09984090924263,-2.2951676845550537,-4.288504600524902,2.062793493270874,1.8489716053009033,-3.9289889335632324,-3.492051362991333,2.951509952545166,0.002322549931704998,1.3575705289840698,0.9109238386154175,9.423011779785156,-4.514303207397461,0.705536425113678,-7.791711807250977,-1.6370220184326172,11.148303031921387,-0.7754170894622803,-5.549976348876953,1.908899188041687,4.3252739906311035,3.5309107303619385,2.112358808517456,17.16720199584961,-5.428203105926514,4.216034889221191,14.525371551513672,-4.692421913146973,1.340691089630127,-0.08553531765937805,0.7507262229919434,-0.0023432497400790453,-3.3450515270233154,-0.29373449087142944,-0.6215304732322693,-7.141768455505371,0.7524489760398865,2.3858518600463867,1.469664216041565,-3.451728105545044,0.3577693998813629,4.529299736022949,0.7490459084510803,-0.7532828450202942,0.41860005259513855,5.7254109382629395,3.3123059272766113,-12.255743980407715,-0.24645592272281647,-0.011917093768715858,-0.20280635356903076,1.531453013420105,-13.2847900390625,-0.028517307713627815,-0.7984980344772339,-16.89386749267578,-10.702057838439941,-1.1616053581237793,-14.113368034362793,-0.8425752520561218,-0.03799518197774887,-8.107577323913574,-5.996698379516602,-2.8105573654174805,-1.935920000076294,-9.867424011230469,-28.691064834594727,-0.7409491539001465,-0.013579151593148708,-0.013144060969352722,0.24960733950138092,2.3495068550109863,-2.0956478118896484,-0.25160467624664307,-1.537953495979309,-7.896548271179199,-0.012589691206812859,-3.3987510204315186,0.008590929210186005,2.514563798904419,0.04137797653675079,6.051671028137207,0.49698659777641296,-0.6746214628219604,3.895047664642334,0.5539638996124268,-0.056174349039793015,3.6680362224578857,0.021976500749588013,-0.1908109039068222,-2.6055331230163574,-4.677312850952148,0.7720099687576294,-0.20793986320495605,2.5410001277923584,-29.76125717163086,2.852674961090088,-0.10432106256484985,-22.869632720947266,2.24165415763855,0.003111929865553975,-8.632513046264648,2.760694980621338,-1.8397923707962036,-1.1439155340194702,-6.052981853485107,2.117140531539917,-7.314364910125732,-0.07589986175298691,-0.0023945823777467012,-3.597391128540039,4.28786563873291,1.3510749340057373,-0.7666657567024231,2.8609609603881836,-3.5562708377838135,2.438896417617798,-0.4178982973098755,2.2495057582855225,0.6260753870010376,-0.050127822905778885,8.555702209472656,1.771565556526184,-6.0395002365112305,1.7426782846450806,-21.354236602783203,2.9108939170837402,13.298466682434082,0.13986310362815857,-0.0012494685361161828,-0.47212761640548706,-5.702683925628662,-0.8279228210449219,0.3945532441139221,-3.6627285480499268,0.20203302800655365,0.36274075508117676,0.8821189999580383,-0.8780196309089661,-4.679322242736816,-0.07103036344051361,1.4372243881225586,-9.42977237701416,3.1576147079467773,4.6807966232299805,-4.6796698570251465,2.301337957382202,-0.3789333701133728,0.0005969364428892732,-0.08333304524421692,0.05876344442367554,1.2498562335968018,-5.0102081298828125,0.15060614049434662,0.4450306296348572,-6.9352192878723145,-0.016952650621533394,-1.7027746438980103,-1.3186733722686768,6.388078212738037,-0.11688649654388428,-3.124089002609253,-7.172863960266113,-4.681705474853516,-3.581221342086792,-0.037192452698946,0.3568376898765564,-2.4186933040618896,-0.014454840682446957,0.005847502965480089,-0.027995143085718155,-1.046313762664795,1.1599714756011963,0.07517881691455841,-0.02288772538304329,4.666141986846924,0.35554641485214233,-0.1665702611207962,-0.9469839930534363,0.1791485697031021,0.003217684105038643,-0.2768428921699524,4.688587188720703,0.24044914543628693,0.03959628567099571,4.869596481323242,-0.36503443121910095,-0.564760148525238,0.005359632894396782,0.3413294851779938,-0.849754810333252,10.252274513244629,8.14070987701416,-2.538473606109619,-9.252189636230469,-1.6449801921844482,14.667451858520508,-0.27394893765449524,-5.132131576538086,7.506967544555664,4.051100254058838,0.2191953808069229,11.546048164367676,12.563970565795898,8.282231330871582,3.8471198081970215,17.885469436645508,-2.4751710891723633,0.5994519591331482,-0.3214462697505951,-0.9250848293304443,8.448907852172852,3.0412518978118896,-0.7900110483169556,-3.349268913269043,-1.8190252780914307,-3.0816574096679688,-4.278072834014893,-16.374000549316406,3.42399263381958,0.9537875652313232,10.314948081970215,3.471013069152832,5.661385536193848,-0.6008956432342529,-6.428460597991943,6.7923150062561035,-1.1519461870193481,-0.39630913734436035,0.013015290722250938,-0.19744083285331726,3.61552357673645,4.448401927947998,-0.944171667098999,2.9699323177337646,4.446418762207031,-0.7845406532287598,-0.15895366668701172,-0.7912020683288574,-2.1753180027008057,0.5622889995574951,-2.46034574508667,3.4950950145721436,1.8819224834442139,-1.2698307037353516,1.2430126667022705,2.398231267929077,-7.679827690124512,-0.010416512377560139,0.02001105807721615,0.6789836287498474,1.6834099292755127,-1.0955557823181152,0.04834795370697975,0.9082150459289551,-7.556467533111572,-6.547204494476318,2.5470023155212402,-26.24825096130371,5.0223283767700195,-0.011973368935286999,-0.5190587639808655,-4.620780944824219,-1.2830190658569336,-2.8438541889190674,-12.69576358795166,-10.236974716186523,34.95850372314453,0.04286422207951546,-0.1603553742170334,7.8162841796875,0.9282061457633972,0.2936544418334961,0.6331310868263245,-2.973371744155884,-0.6276059746742249,-12.923221588134766,3.199587821960449,3.4083800315856934,-30.65913200378418,-0.19641484320163727,-8.653141021728516,1.4696582555770874,-7.944079399108887,0.7933684587478638,9.452807426452637,5.072605133056641,1.6106592416763306,-0.09251897037029266,0.006841802969574928,-0.0012611221754923463,-0.018350256606936455,0.5798519253730774,-0.013693162240087986,0.034158963710069656,-2.1750130653381348,0.007986171171069145,-0.00656325975432992,-0.00956088025122881,0.3190002739429474,-0.01175656821578741,-0.7849047183990479,-2.511493444442749,-0.11899279803037643,0.04118216037750244,-1.0272738933563232,-0.8874346017837524,1.604973316192627,-0.004157702438533306]},"outputBias":{"rows":20,"columns":1,"weights":[-0.3861248791217804,-0.3985110819339752,7.829887866973877,0.5139824151992798,-2.369157552719116,-3.3566701412200928,-7.1449174880981445,5.7454328536987305,-1.2879784107208252,-1.1500003337860107,-12.292241096496582,0.5101343393325806,0.2720296382904053,2.736525297164917,-3.5128774642944336,-3.3245561122894287,3.2860107421875,10.62853717803955,-8.060074806213379,-1.789963960647583]},"cellActivationMatrix":{"rows":20,"columns":1,"weights":[0.7230692505836487,-7.456575393676758,11.12249755859375,-0.4443466067314148,-0.473354697227478,7.177128791809082,4.263481140136719,-1.0572153329849243,0.086650051176548,1.3193271160125732,-1.1698874235153198,2.1152772903442383,3.405820608139038,2.540292978286743,-2.51346755027771,3.8514652252197266,0.1554800570011139,2.1256916522979736,-8.121078491210938,-0.04061092808842659]},"cellActivationHidden":{"rows":20,"columns":20,"weights":[0.0051540411077439785,0.0027498609852045774,-0.2127177119255066,0.27568352222442627,-0.00007284421735676005,-0.01906423456966877,0.08969370275735855,0.013346781022846699,0.007095915265381336,0.02998696267604828,0.15378013253211975,-0.001847228268161416,-0.04594574123620987,0.5365976095199585,0.013091634027659893,-0.08772198110818863,0.13955649733543396,0.0550469271838665,-0.11347060650587082,0.006060795392841101,0.004211339168250561,-0.10709024965763092,-0.8896906971931458,2.9360787868499756,0.10494775325059891,-0.11260318756103516,1.0174404382705688,-0.46461549401283264,0.06852816045284271,-2.178952217102051,-3.0724785327911377,-0.09125851839780807,-0.2898012101650238,-0.23641489446163177,2.9965808391571045,-0.3850840628147125,4.594336986541748,1.2239571809768677,2.6312179565429688,-0.0001578076189616695,-0.009557176381349564,-0.16305577754974365,-6.091378688812256,0.5347013473510742,0.5382550954818726,-0.8749886155128479,-7.370738983154297,-2.2101993560791016,-0.2341536432504654,-3.7404918670654297,5.718205451965332,-0.6188589334487915,-4.2328596115112305,-3.9262149333953857,-7.988598346710205,1.1555103063583374,6.047966003417969,2.9935600757598877,-11.131327629089355,-0.0033890954218804836,-0.022094953805208206,0.920225977897644,-3.2318949699401855,-0.746746301651001,-0.008137805387377739,-0.9594665169715881,-4.425904750823975,0.06655128300189972,0.013748806901276112,-1.1687164306640625,-0.18402642011642456,-0.014066481031477451,3.15447998046875,-3.4429373741149902,0.5144008994102478,-0.09709711372852325,-11.129144668579102,-4.983280658721924,-7.617326736450195,-0.01745375618338585,0.005555847194045782,0.21133968234062195,1.2492802143096924,0.9120781421661377,-0.18456017971038818,-1.982835292816162,0.9435626268386841,-0.06612290441989899,0.8950946927070618,0.06299402564764023,-0.6446276307106018,0.018860938027501106,-0.7568318247795105,2.6609277725219727,-0.7406247854232788,-0.21364925801753998,-0.11390359699726105,0.7451992034912109,1.1405690908432007,-0.001115150866098702,-0.07931148260831833,0.5012751817703247,23.51960563659668,5.210651397705078,-0.1716764271259308,0.10188255459070206,10.525596618652344,1.44400155544281,0.2302946150302887,0.22995734214782715,0.05336054414510727,-0.007816712372004986,0.9728559255599976,-1.1561623811721802,-8.719290733337402,0.2443062663078308,-3.5393733978271484,0.6270619034767151,-5.344544410705566,-0.007220330182462931,0.01891506463289261,0.635446310043335,1.746701955795288,-1.0784097909927368,0.5866439342498779,1.9264023303985596,-5.175283432006836,1.2052665948867798,0.4536971151828766,-1.3582104444503784,-1.1798629760742188,0.10335348546504974,-6.563986301422119,-7.7773003578186035,-3.003308057785034,0.11185259371995926,-0.8983777761459351,-1.9037500619888306,1.8047267198562622,0.0022618870716542006,-0.004569177515804768,0.016060125082731247,1.214489459991455,2.5813779830932617,-0.015864050015807152,-0.48421719670295715,-2.9351608753204346,0.02118212915956974,0.016647813841700554,4.700267791748047,1.3723905086517334,-0.04508344456553459,-0.349444717168808,-4.108087539672852,-7.407954692840576,0.9836432337760925,-4.916114330291748,-5.171776294708252,-2.7802534103393555,-0.01192021369934082,-0.017880821600556374,0.0010674273362383246,0.41172730922698975,0.15672919154167175,-0.07021826505661011,0.2893754243850708,-0.34757083654403687,0.01417300570756197,-0.0354778878390789,0.08306820690631866,0.050370991230010986,0.009470355696976185,-0.6337732672691345,0.9876008033752441,-0.4949270486831665,-0.10581012815237045,-0.1479598730802536,0.0932689979672432,0.8038195967674255,-0.0004107017593923956,0.0032202270813286304,-0.005646578501909971,-1.2364919185638428,1.1430431604385376,-0.0050488305278122425,0.012157008983194828,-0.7145302295684814,0.01851903460919857,0.002973123686388135,0.06319455802440643,0.07308199256658554,0.0022143926471471786,-0.34513619542121887,1.4548612833023071,0.23119191825389862,0.35807621479034424,3.578638792037964,0.1684148907661438,-0.22176013886928558,0.0002790828002616763,0.08815542608499527,-0.050895944237709045,-1.8015216588974,-0.9571659564971924,0.03131801635026932,-0.0026167137548327446,-1.7463464736938477,0.0006550436373800039,-0.26195240020751953,-0.002580065978690982,0.2381467968225479,-0.07580746710300446,0.5316997766494751,-3.308241128921509,0.6218492388725281,0.5311545729637146,1.1278772354125977,-0.27080878615379333,0.45765313506126404,0.0077283247373998165,0.003573434893041849,0.1158732920885086,2.049342155456543,0.5121223330497742,0.006182625889778137,-0.6171660423278809,-1.298025369644165,0.1594080924987793,0.16096456348896027,-0.0007701294962316751,-3.3323557376861572,-0.010442513041198254,-0.6551513671875,1.3123595714569092,0.06888749450445175,0.24022839963436127,-0.7604247331619263,1.4002962112426758,1.9632636308670044,-0.00042452450725249946,0.04084017500281334,0.05954357236623764,-1.5203276872634888,-0.493170827627182,0.0744723230600357,0.39177796244621277,2.3134896755218506,-0.04213022068142891,1.0415349006652832,0.5808358192443848,-2.6922998428344727,0.12409240007400513,3.6313624382019043,3.563380002975464,2.526301383972168,7.587384223937988,0.04246120899915695,-3.7502756118774414,-16.139314651489258,0.01904822513461113,-0.04388837143778801,0.0015417938120663166,-0.08507538586854935,0.3764447271823883,-0.016916973516345024,0.007042153272777796,1.4331908226013184,0.0598212331533432,-0.003942788112908602,-0.10701841115951538,-0.33126339316368103,-0.01616423763334751,-0.15084019303321838,2.8353726863861084,0.022351179271936417,0.08236824721097946,2.176590919494629,-0.0894477590918541,-0.2740715742111206,-0.00019919047190342098,-0.033358946442604065,-0.18829861283302307,-3.02154278755188,0.5071063041687012,0.1843697726726532,-2.2163584232330322,-0.6965494751930237,0.026004433631896973,-0.21729065477848053,-0.46631255745887756,5.924050807952881,0.04427185654640198,1.936838150024414,-3.2025210857391357,1.5615023374557495,0.6409401297569275,0.39007553458213806,-4.524600505828857,-1.8343284130096436,0.004967725835740566,-0.01369495689868927,0.05535605549812317,-3.4787213802337646,0.7284642457962036,-0.3058337867259979,0.3911861479282379,-12.053827285766602,-2.5123977661132812,-0.577533483505249,0.06461698561906815,-5.777072429656982,-0.17340774834156036,-0.635007381439209,3.1604511737823486,-0.4018067717552185,-0.9871941208839417,3.3951621055603027,-2.71299409866333,-11.339670181274414,0.01688704453408718,-1.007046103477478,1.1520553827285767,-10.283472061157227,5.121402263641357,-0.0006272257305681705,4.670316696166992,-3.573479413986206,-6.8496880531311035,-2.502793788909912,2.926828145980835,-3.1798343658447266,-1.7951589822769165,0.3281010091304779,-1.9929842948913574,-8.400824546813965,0.8606745600700378,4.558094501495361,-36.4365348815918,-24.674991607666016,-0.4877724051475525,0.013388914987444878,0.345236212015152,13.320656776428223,-4.842352390289307,0.13377037644386292,0.24947331845760345,13.576150894165039,0.15359708666801453,0.2809584140777588,0.354786217212677,-2.726480722427368,0.016993241384625435,-1.7068434953689575,-1.820842981338501,1.3425004482269287,1.2338734865188599,6.678722381591797,0.10985194891691208,-7.003706932067871,-0.001435345970094204,-0.02512201853096485,0.21742822229862213,3.5856072902679443,-5.2262091636657715,-0.21659158170223236,-1.2041373252868652,2.655165672302246,0.6400313973426819,0.13793234527111053,4.610538482666016,4.724236965179443,-0.03535044193267822,-2.5549583435058594,-0.4477873146533966,-6.102664470672607,4.757289409637451,-7.837424278259277,7.683393478393555,7.316930770874023,-0.0407462939620018,-0.001924934796988964,0.002208267105743289,0.09327720105648041,-0.8747971653938293,-0.003582652425393462,0.020564701408147812,-0.09843271225690842,-0.003891133703291416,0.010344408452510834,0.02111036889255047,0.2002377063035965,-0.0032357533928006887,-0.6666865944862366,0.26528656482696533,0.05909482762217522,-0.3594566583633423,-0.5231124758720398,0.5038436651229858,-0.7249791622161865,-0.0032553421333432198]},"cellActivationBias":{"rows":20,"columns":1,"weights":[0.291690468788147,-0.16539746522903442,0.7324784398078918,0.18042846024036407,-0.24655935168266296,1.118815302848816,0.5543703436851501,6.106210708618164,-0.8837950229644775,0.01564357802271843,1.2589353322982788,-0.023649509996175766,-3.651454210281372,1.2696335315704346,0.6291924118995667,0.20795288681983948,6.472096920013428,0.3197159767150879,-1.5866321325302124,1.3963788747787476]}}],"outputConnector":{"rows":1,"columns":20,"weights":[-0.305500328540802,-1.007208228111267,-0.1811312735080719,-2.8302252292633057,0.7096738815307617,0.5077796578407288,0.22521649301052094,0.30994877219200134,0.038185540586709976,-0.36209678649902344,0.48109182715415955,-0.4625076353549957,0.5913551449775696,-9.68701171875,-1.4681713581085205,3.4964821338653564,-0.5052454471588135,-0.7927273511886597,0.05634010583162308,-0.2199123650789261]},"output":{"rows":1,"columns":1,"weights":[10.66773509979248]},"inputLookup":{"h":0,"d":1,"a":2},"inputLookupLength":3,"outputLookup":{"fthg":0,"ftag":1},"outputLookupLength":2}