module.exports = function anonymous(rawInput
) {

  var input = lookupInput(rawInput);
  var json = {"type":"LSTMTimeStep","options":{"inputSize":1,"inputRange":0,"hiddenLayers":[20],"outputSize":1,"decayRate":0.999,"smoothEps":1e-8,"regc":0.000001,"clipval":5,"maxPredictionLength":100,"dataFormatter":{"indexTable":{},"characterTable":{},"characters":[],"specialIndexes":[]}},"hiddenLayers":[{"inputMatrix":{"rows":20,"columns":1,"weights":[-1.8281508684158325,-1.7109969854354858,3.7859437465667725,-1.361894130706787,0.48581698536872864,-0.41500845551490784,-1.4312794208526611,-1.7368698120117188,-1.7323817014694214,3.248615264892578,-1.5127626657485962,-1.994836688041687,-2.5774543285369873,0.22160184383392334,1.7829325199127197,-3.015310525894165,-2.357881546020508,-0.40644383430480957,-1.7111279964447021,-2.0117971897125244]},"inputHidden":{"rows":20,"columns":20,"weights":[0.6597269773483276,0.6130169630050659,3.821727991104126,-0.002762783784419298,-0.023266565054655075,-2.001682996749878,0.002241496229544282,-0.6300212144851685,0.6264974474906921,0.6058140993118286,0.6079339981079102,0.45833009481430054,1.8521363735198975,-0.48927828669548035,-0.6668152809143066,0.9564048647880554,-0.7664996385574341,-2.6941542625427246,-0.6241517663002014,-0.7029078006744385,0.66814786195755,0.6344081163406372,3.6038975715637207,-0.002751458203420043,-0.01734708622097969,-1.8271820545196533,0.0022377173881977797,-0.6439009308815002,0.648816704750061,0.5614498853683472,0.6228877902030945,0.4351726174354553,1.5815790891647339,-0.4854849576950073,-0.6736178994178772,0.9777604341506958,-0.7380870580673218,-2.8409924507141113,-0.6429279446601868,-0.6850893497467041,-0.3240188658237457,-0.25707465410232544,-7.569403171539307,0.0014327940298244357,-0.0002626705390866846,3.0550317764282227,0.003432137193158269,0.293858140707016,-0.2638700306415558,-3.482785701751709,-0.29659220576286316,-0.2452075332403183,-1.7419575452804565,-1.5352853536605835,0.5973256230354309,-0.8337218761444092,0.44289326667785645,-0.44439616799354553,0.27488765120506287,0.4110991358757019,0.017706720158457756,0.020671574398875237,3.893984794616699,-0.04085812717676163,-0.0028321314603090286,-0.3981698453426361,-0.00022645763237960637,-0.01835361123085022,0.02099553495645523,0.3137238323688507,0.04257722571492195,0.002580703468993306,0.9032134413719177,0.5948237180709839,-0.7284920811653137,0.09256695210933685,0.00004241091664880514,-0.20352593064308167,-0.01925266534090042,-0.007195443846285343,0.15129221975803375,0.1580285131931305,5.728373050689697,0.008172865025699139,-1.8670742511749268,-2.406560182571411,0.005612168926745653,-0.14675946533679962,0.1595965325832367,1.4558734893798828,0.42370834946632385,0.08107579499483109,-1.9090033769607544,0.2734912931919098,-1.0405349731445312,1.2610561847686768,-0.17230775952339172,4.381746768951416,-0.15198253095149994,-0.12994013726711273,-1.5015552043914795,-1.536279320716858,3.892643928527832,-0.9394951462745667,-0.903924286365509,4.215574264526367,-7.535656452178955,1.5226823091506958,-1.4926345348358154,15.320028305053711,-0.7504079341888428,-1.3280311822891235,9.219079971313477,-4.728302001953125,-25.872941970825195,3.354140520095825,1.2761567831039429,-5.936059951782227,1.5240113735198975,1.518128752708435,0.008105170913040638,0.00834282673895359,3.045215368270874,-0.007363842334598303,-0.04057052358984947,-0.08171839267015457,1.324599027633667,-0.007877062074840069,0.008759623393416405,-3.7157552242279053,0.00890201423317194,0.00544624961912632,3.0014431476593018,0.3016396462917328,-1.8091791868209839,1.4601824283599854,-0.006240747403353453,0.4453679025173187,-0.008099410682916641,-0.005546818021684885,0.6607076525688171,0.6222103834152222,3.656209707260132,-0.003017410868778825,-0.018237069249153137,-1.8521788120269775,0.0022597447969019413,-0.6349925398826599,0.6362456679344177,0.5636453032493591,0.6078677773475647,0.41897398233413696,1.6208637952804565,-0.4820769727230072,-0.6498746871948242,0.9717540740966797,-0.7216248512268066,-2.7644002437591553,-0.6319373250007629,-0.6772368550300598,0.670545756816864,0.6345770955085754,3.644710063934326,-0.0022230208851397038,-0.01662873849272728,-1.8770726919174194,0.00244691944681108,-0.6448878645896912,0.6494199633598328,0.5821479558944702,0.6306205987930298,0.45957332849502563,1.639573097229004,-0.4675867259502411,-0.6838123798370361,0.9768829941749573,-0.7647106647491455,-2.826927423477173,-0.6436408162117004,-0.6996326446533203,-1.3918380737304688,-1.2901204824447632,13.353529930114746,0.40794411301612854,1.7209542989730835,-9.25493335723877,-1.309181809425354,1.3155500888824463,-1.2930303812026978,8.673871994018555,-1.1187694072723389,-1.6353381872177124,2.378735303878784,0.3398599326610565,-7.5083513259887695,1.990570306777954,1.639121413230896,-1.809865117073059,1.2920687198638916,1.530587911605835,0.7513574957847595,0.7569101452827454,3.7771286964416504,-0.02280549891293049,-0.3523867130279541,-2.8142430782318115,0.004794553387910128,-0.7419845461845398,0.7650840282440186,1.2362486124038696,1.0309879779815674,0.7804076075553894,1.3902312517166138,-0.878001868724823,-0.6044848561286926,1.0099408626556396,-0.9604628086090088,-3.63663649559021,-0.7520768642425537,-0.7707476615905762,0.6587458252906799,0.6040361523628235,4.439892292022705,-0.002108860295265913,-0.03984338790178299,-2.089712142944336,0.00165048916824162,-0.6302922964096069,0.6091365218162537,0.2888406813144684,0.6428141593933105,0.29643726348876953,1.5200291872024536,-0.32832595705986023,-0.4117247462272644,0.9101046323776245,-0.5548608303070068,-0.8335146307945251,-0.6154228448867798,-0.5518161654472351,0.18589742481708527,0.2123725861310959,2.101689577102661,0.19857479631900787,0.014130668714642525,3.1539745330810547,1.3941519260406494,-0.19887065887451172,0.1828313171863556,7.908370494842529,0.22812463343143463,-0.06220288574695587,21.947542190551758,-1.2775086164474487,-8.827264785766602,-21.231782913208008,-0.04056229814887047,2.027609348297119,-0.20577314496040344,-0.06402693688869476,-0.05249439924955368,-0.029609929770231247,1.3028321266174316,-0.01836494170129299,-0.4386049211025238,-17.52096939086914,0.2595326900482178,0.03152010589838028,-0.030516445636749268,0.8486955165863037,0.014375590719282627,-0.001172190997749567,-2.2522552013397217,2.2978389263153076,-0.45823580026626587,0.06149599701166153,0.03385230526328087,0.4605204164981842,0.027068762108683586,0.019529251381754875,0.606857180595398,0.7310969829559326,8.695862770080566,-0.08221455663442612,-0.07191527634859085,-6.265040874481201,-0.029991572722792625,-0.6680058240890503,0.7304724454879761,1.353402853012085,0.7426665425300598,-0.12381239980459213,11.327103614807129,-0.1718512326478958,-6.617986679077148,4.37114953994751,0.011940834112465382,-1.281630039215088,-0.7051869630813599,-0.2279672473669052,0.20851226150989532,0.21051755547523499,-3.3648595809936523,-0.21812672913074493,0.08646140992641449,-0.47089359164237976,-0.02642594650387764,-0.22174614667892456,0.1934654265642166,-4.126466751098633,0.15000097453594208,0.16058281064033508,5.169657230377197,10.455087661743164,-4.292788028717041,-0.3345131278038025,-0.15603289008140564,-2.7147016525268555,-0.20361369848251343,-0.18692944943904877,0.6823976635932922,0.6050530672073364,4.709045886993408,-0.004848788026720285,-0.06501670926809311,-2.5528995990753174,0.002001203363761306,-0.6422396898269653,0.6131449937820435,0.6835569739341736,0.6524235606193542,0.5225309133529663,1.8259369134902954,-0.42880550026893616,-0.4709513783454895,0.9514169096946716,-0.8489649295806885,-1.4856733083724976,-0.6223320364952087,-0.7662697434425354,0.44432884454727173,0.4551079273223877,-3.1125030517578125,0.14927232265472412,-0.2657255530357361,-7.665109157562256,0.26893720030784607,-0.4314957857131958,0.47212085127830505,-12.98692512512207,0.836707592010498,0.17849017679691315,2.659270763397217,2.975252628326416,-2.657752752304077,5.009681701660156,-0.2620980739593506,0.7134000062942505,-0.4351736307144165,-0.3076336681842804,0.66386878490448,0.6287411451339722,3.604463577270508,-0.0024340120144188404,-0.016005687415599823,-1.8182263374328613,0.002147546736523509,-0.6395091414451599,0.6433734893798828,0.5621756911277771,0.6154869198799133,0.420103520154953,1.574042797088623,-0.4715004861354828,-0.6558163166046143,0.9773696660995483,-0.7224113941192627,-2.806427478790283,-0.6378315687179565,-0.676846981048584,0.6564143896102905,0.5967294573783875,4.18800163269043,-0.001718109124340117,-0.022427743300795555,-2.173518419265747,0.0017243970651179552,-0.6234734654426575,0.6057515740394592,0.6210130453109741,0.5944661498069763,0.3744766414165497,1.720304012298584,-0.5889630317687988,-0.5026138424873352,0.9471112489700317,-0.6834869384765625,-2.21563458442688,-0.6106259226799011,-0.6631816029548645]},"inputBias":{"rows":20,"columns":1,"weights":[-0.5852055549621582,-0.9028328061103821,3.2591536045074463,-1.013480305671692,-0.4943985342979431,6.076435089111328,-0.7190865874290466,-0.8411309719085693,-0.8070271015167236,7.500624656677246,0.2847408652305603,0.08626434206962585,4.1061553955078125,-1.9347522258758545,4.66776180267334,-3.2538294792175293,0.4703722298145294,-2.9672627449035645,-0.8972926139831543,-0.27702975273132324]},"forgetMatrix":{"rows":20,"columns":1,"weights":[0.5096946954727173,0.5642791390419006,-7.388551712036133,-0.2516215443611145,-0.6186404228210449,-0.7537444829940796,-1.481119990348816,0.5162403583526611,0.5838103890419006,4.762772083282471,0.039315365254879,-0.5099912881851196,-0.056589264422655106,-3.6538634300231934,-2.2654521465301514,-0.4100450575351715,-0.42946168780326843,-0.5940709710121155,0.531284511089325,0.1855190545320511]},"forgetHidden":{"rows":20,"columns":20,"weights":[0.0074874237179756165,0.014514223672449589,-0.44077634811401367,-0.00001755206540110521,0.0006329552852548659,-0.34927788376808167,0.000014404162357095629,-0.011018875055015087,0.01578242890536785,0.5089880228042603,0.04617226868867874,-0.003726026974618435,-0.0924900695681572,-0.0941188633441925,0.13532131910324097,0.000033348860597470775,0.008604913018643856,-0.0748593658208847,-0.012832398526370525,0.003951043356209993,0.012089237570762634,0.021943731233477592,-0.43581801652908325,-0.000018938808352686465,0.0005544665036723018,-0.34603941440582275,0.000011580556019907817,-0.01651766709983349,0.02405053749680519,0.5046797394752502,0.07881397753953934,-0.004101515281945467,-0.05448846146464348,-0.12137085944414139,0.07526135444641113,0.00009422039147466421,0.009139800444245338,-0.09423425048589706,-0.019265066832304,0.0036692742723971605,0.41399452090263367,0.472699373960495,2.759425401687622,-0.03291179984807968,-0.4263986647129059,-2.8999857902526855,0.16955171525478363,-0.4312785565853119,0.49022218585014343,6.539807319641113,0.5487105250358582,-0.22776050865650177,3.5214266777038574,-0.5880727171897888,-6.972330093383789,-5.666367053985596,0.16955719888210297,5.079250812530518,-0.46069180965423584,0.008429248817265034,0.00022387817443814129,0.0002439241943648085,0.050252337008714676,-0.04070297256112099,0.0011816697660833597,0.04124803468585014,0.000019527447875589132,-0.0002128123742295429,0.0007703379960730672,0.0507868267595768,0.003236200427636504,0.0003380753914825618,-0.0006923629553057253,0.007243323139846325,-0.03813239932060242,-0.0005033166380599141,0.00003545778599800542,0.0016841595061123371,-0.0002254947612527758,-0.00012477485870476812,0.00023390917340293527,0.00020724613568745553,1.696975588798523,-0.0006820416892878711,-0.006939592771232128,-1.2650121450424194,-0.0003281008393969387,-0.0002036028599832207,0.0001043002848746255,-0.12573282420635223,0.004176602698862553,0.00025262869894504547,0.9744859933853149,0.13013999164104462,-0.26289820671081543,0.001521768164820969,-0.0016461724881082773,0.004744572564959526,-0.00020629559003282338,-0.00016107359260786325,-2.2035040855407715,-2.2270102500915527,-9.319119453430176,1.062089443206787,-0.20433667302131653,5.030850887298584,-0.7294365763664246,2.2200167179107666,-2.226566791534424,-11.330864906311035,-2.4761016368865967,-1.9233412742614746,-14.9903564453125,3.495882272720337,12.095383644104004,9.978228569030762,2.0847434997558594,1.988361120223999,2.223857879638672,2.085279703140259,0.00008311242709169164,0.00008258471643785015,0.24943411350250244,-0.00002028502058237791,-0.000049527301598573104,0.5619974136352539,0.007140384055674076,-0.00007656749221496284,0.00008378530765185133,-0.12267943471670151,0.0002560993016231805,0.00005087824320071377,0.0013464356306940317,0.032336000353097916,-0.001687403884716332,0.00010815721179824322,-0.00007818255107849836,0.0008252080297097564,-0.00008095973316812888,-0.00005329465784598142,0.011277813464403152,0.019520103931427002,-0.4151269495487213,-0.000014462301805906463,0.0005423055263236165,-0.3275890350341797,0.000010934853889921214,-0.015031502582132816,0.021242082118988037,0.47830647230148315,0.06392713636159897,-0.003450564341619611,-0.05392872169613838,-0.09862315654754639,0.08912467211484909,0.00008764611993683502,0.0077451858669519424,-0.07877236604690552,-0.01734342612326145,0.002761731157079339,0.011541155166924,0.0219259113073349,-0.46876031160354614,0.00018665954121388495,0.000669334433041513,-0.37819063663482666,0.000014140447092358954,-0.016308657824993134,0.023981785401701927,0.542939305305481,0.07779829949140549,-0.004414097871631384,-0.0752444639801979,-0.1266070157289505,0.09198134392499924,-0.00006224778917385265,0.009956968016922474,-0.0985381007194519,-0.019115598872303963,0.0043522268533706665,-0.35827046632766724,-0.3674211800098419,-6.225236415863037,0.03973335772752762,0.03783378005027771,1.1857548952102661,-1.4383739233016968,0.34161248803138733,-0.36894604563713074,0.49312305450439453,-0.495652437210083,-0.07961884140968323,-7.555431842803955,0.73319411277771,-1.5396003723144531,-5.230103969573975,0.2650843560695648,-0.8664769530296326,0.3494196832180023,0.2538864016532898,0.10582111030817032,0.16131845116615295,-0.2494305670261383,-0.0005549851921387017,0.00009129317186307162,-0.1533350795507431,0.000028257094527361915,-0.12797823548316956,0.1674782633781433,0.5667851567268372,0.2354840785264969,-0.003745492547750473,-0.2722448706626892,-0.6886588931083679,0.14854861795902252,-0.000037467951187863946,0.024506988003849983,-0.3353081941604614,-0.14460526406764984,-0.003088348777964711,-0.0015095608541741967,-0.0018006752943620086,0.005337844602763653,-0.000043494543206179515,-0.0018768261652439833,0.03164257854223251,0.000014183521670929622,0.0013903456274420023,-0.0019567443523555994,0.3832572102546692,-0.004976777359843254,0.0018663491355255246,-0.04130573198199272,-0.006527771707624197,0.050675034523010254,0.00015156409062910825,-0.00083546107634902,-0.005284941289573908,0.0016308148624375463,0.00014719620230607688,0.031574547290802,0.06029144674539566,-0.26927366852760315,-0.0023649134673178196,0.04630584269762039,-8.80194091796875,-0.038138497620821,-0.04423948749899864,0.06030408293008804,-4.456009387969971,0.23211167752742767,-0.0013882810017094016,3.8479011058807373,8.144713401794434,6.184937953948975,0.49050337076187134,0.018363138660788536,4.980729103088379,-0.05226647108793259,-0.0003868597559630871,0.000057978497352451086,0.0000060696092987200245,4.048395156860352,0.0008538257679902017,0.0016009924001991749,-4.135085582733154,-0.13603730499744415,-0.000024740711523918435,0.000020088551536900923,0.7671803832054138,-0.0010347483912482858,0.00013468877295963466,3.8314409255981445,1.3947334289550781,-1.9675357341766357,-0.64268958568573,0.004111343063414097,4.516707420349121,-0.000006449521151807858,0.000026393487132736482,0.4281834363937378,0.5503974556922913,4.654714584350586,-0.014720980077981949,-0.00997705478221178,-1.6951565742492676,-0.011030963622033596,-0.46199676394462585,0.5744339823722839,-1.0754488706588745,0.9379820823669434,0.04675495997071266,1.6128573417663574,1.0631316900253296,-2.831402063369751,1.968161940574646,-0.07864644378423691,-0.029737725853919983,-0.5077112317085266,-0.12505069375038147,0.00195604027248919,0.001988020958378911,-2.3343775272369385,0.0035814133007079363,0.0018339053494855762,4.897773265838623,0.00008749024709686637,-0.0019412680994719267,0.0022145388647913933,0.17398886382579803,0.002655097981914878,0.001705331145785749,2.8585572242736816,6.611927032470703,-3.289816379547119,6.811022758483887,-0.0033843715209513903,4.428798675537109,-0.0019783705938607454,-0.0019460662733763456,-0.007919836789369583,-0.00822959840297699,-0.23034213483333588,-0.0018150435062125325,-0.0023978084791451693,-0.14572080969810486,-0.00011931340850424021,0.006798862013965845,-0.009001854807138443,0.8079097867012024,-0.028850829228758812,0.00020894141925964504,-0.15983529388904572,-0.03514209762215614,0.23019085824489594,-0.0019137486815452576,0.003685240400955081,-0.00004442674617166631,0.007540340535342693,0.0036754945758730173,-0.003220196580514312,0.013494657352566719,5.14724063873291,-0.034047700464725494,0.00781289767473936,0.10107339918613434,-0.008470994420349598,-0.012922455556690693,0.010830800980329514,-1.9790196418762207,0.008887850679457188,0.0024286233820021152,0.46451374888420105,1.3006391525268555,-1.476764440536499,-0.6947700381278992,-0.03683903440833092,0.903441309928894,-0.013339022174477577,-0.010239016264677048,0.012296237051486969,0.021537400782108307,-0.4211503565311432,-0.000017628399291425012,0.0005638812435790896,-0.33294427394866943,0.000013841142390447203,-0.016489148139953613,0.023442115634679794,0.48702871799468994,0.07304225116968155,-0.0037489421665668488,-0.048539042472839355,-0.10764462500810623,0.08070598542690277,0.0000948858360061422,0.008362147025763988,-0.08520333468914032,-0.019025251269340515,0.003087615128606558,-0.0006890822551213205,0.0004885069793090224,-0.3583131730556488,-0.000016380894521716982,0.00010148050205316395,-0.26856479048728943,0.00003257398202549666,-0.0003918081056326628,0.00044083778630010784,0.4847160875797272,-0.0013014569412916899,-0.0009269854053854942,-0.06995855271816254,-0.023429887369275093,0.10985346883535385,0.00010135355842066929,0.0029459064826369286,-0.020648816600441933,-0.00034949963446706533,0.0021584222558885813]},"forgetBias":{"rows":20,"columns":1,"weights":[0,0,0,0,0,0,0,0,0,0,0,0,0,0,0,0,0,0,0,0]},"outputMatrix":{"rows":20,"columns":1,"weights":[-1.9309072494506836,-1.8094695806503296,4.568650245666504,-1.3760509490966797,-3.766598701477051,-1.6621818542480469,-1.2880775928497314,-1.8244028091430664,-1.8473713397979736,-3.502429962158203,-2.7964558601379395,-2.030503273010254,2.730186939239502,2.055368661880493,-3.4921038150787354,3.2310967445373535,-2.276914119720459,-2.328655481338501,-1.803464651107788,-2.0601389408111572]},"outputHidden":{"rows":20,"columns":20,"weights":[0.7896577715873718,0.744594156742096,3.9361042976379395,-0.0030968566425144672,-0.01823190599679947,-1.8835396766662598,0.002272828249260783,-0.7606964111328125,0.7593281269073486,0.48953190445899963,0.7314600348472595,0.5380159616470337,1.9158718585968018,-0.4667823910713196,-0.7477496862411499,0.9566665291786194,-0.8688854575157166,-2.641481637954712,-0.7556102275848389,-0.8230260014533997,0.8238672018051147,0.7923980951309204,3.745910406112671,-0.003114173887297511,-0.010324557311832905,-1.6892809867858887,0.002253139391541481,-0.7999307513237,0.807863712310791,0.4292212724685669,0.7760438919067383,0.5135566592216492,1.6605463027954102,-0.45691487193107605,-0.7704196572303772,0.9781627058982849,-0.8495903015136719,-2.7826080322265625,-0.7996837496757507,-0.8219001889228821,-0.2194722592830658,-0.15486708283424377,-10.438365936279297,0.0024562650360167027,-0.05865078046917915,3.2025625705718994,0.013570993207395077,0.1965285986661911,-0.15906254947185516,-3.944154739379883,-0.059968914836645126,-0.3414505422115326,-1.5196439027786255,-1.7908215522766113,0.939856767654419,-1.3213555812835693,0.4084619879722595,-0.5268121957778931,0.17509211599826813,0.37402111291885376,0.01795809529721737,0.020978815853595734,4.161561965942383,-0.09896918386220932,0.0018239360069856048,-0.3371397852897644,0.0007846069638617337,-0.018474189564585686,0.02160007506608963,0.5733892917633057,0.05159349739551544,0.0033633278217166662,1.050101399421692,0.6890895366668701,-1.0441209077835083,-0.05142999440431595,-0.0005645971396006644,-0.2276793271303177,-0.01948723755776882,-0.007381408475339413,0.12591232359409332,0.21763795614242554,6.544756889343262,-0.027664806693792343,-2.032280921936035,-2.265552043914795,0.0038900377694517374,-0.16153766214847565,0.19407904148101807,1.4363189935684204,0.4935438632965088,0.1122637689113617,-1.3414416313171387,-0.3745045065879822,-0.18421755731105804,1.0976529121398926,-0.05792117863893509,2.136963129043579,-0.18936754763126373,-0.09247324615716934,0.7207632064819336,0.751177966594696,-6.383752346038818,-0.7594227194786072,1.0634313821792603,7.292308330535889,-0.9215536713600159,-0.7281402349472046,0.7578376531600952,4.864675045013428,0.9071217179298401,0.39473530650138855,-5.118362903594971,-6.80319356918335,10.923046112060547,-1.027988314628601,-0.5149721503257751,-10.182332992553711,-0.7403540015220642,-0.5898985266685486,0.009279638528823853,0.009490796364843845,4.686954498291016,-0.008034861646592617,-0.045051660388708115,-2.4583334922790527,1.8968220949172974,-0.008983914740383625,0.009742305614054203,0.1252252459526062,0.010041258297860622,0.006381534971296787,3.6475749015808105,0.9191939830780029,-2.109013319015503,1.6403529644012451,-0.007532582152634859,1.2253329753875732,-0.009271404705941677,-0.006436480674892664,0.7943220138549805,0.7580503821372986,3.777526617050171,-0.0033156918361783028,-0.013031513430178165,-1.735117793083191,0.002339208498597145,-0.7688918113708496,0.7723581790924072,0.4505687654018402,0.7371764779090881,0.4863813519477844,1.689042091369629,-0.45742812752723694,-0.736972987651825,0.9720905423164368,-0.8183850646018982,-2.713594913482666,-0.7667034268379211,-0.7958315014839172,0.8348495960235596,0.8012371063232422,3.7904505729675293,-0.0032712635584175587,-0.008562843315303326,-1.7297414541244507,0.0022564425598829985,-0.809805691242218,0.8174515962600708,0.44237270951271057,0.7905536890029907,0.5495241284370422,1.7195696830749512,-0.43787702918052673,-0.7811189293861389,0.9777678847312927,-0.8863240480422974,-2.7625458240509033,-0.8091066479682922,-0.8461257219314575,-0.23721417784690857,-0.1996687650680542,-3.2082021236419678,0.5086640119552612,1.063849925994873,-3.2892513275146484,-2.375821113586426,0.2146565020084381,-0.19729769229888916,-2.4726576805114746,0.01914297603070736,-0.5054676532745361,-2.5999832153320312,8.18140697479248,-1.6284584999084473,-3.5297420024871826,0.5201677083969116,8.90268325805664,0.21255946159362793,0.4286222457885742,1.159857988357544,1.1526098251342773,4.694084167480469,-0.045139379799366,-0.5573822855949402,-2.092073440551758,0.005774884484708309,-1.1414458751678467,1.1641420125961304,0.3132137656211853,1.585466980934143,1.20963716506958,1.6508375406265259,-0.029926082119345665,-0.7551704049110413,1.0100231170654297,-1.420008659362793,-2.6567978858947754,-1.1475024223327637,-1.1883796453475952,0.6971691846847534,0.6405649781227112,4.4987664222717285,-0.0022481342311948538,-0.04447006434202194,-2.0342562198638916,0.0016810526140034199,-0.6676146984100342,0.6458190083503723,0.2461426854133606,0.6794922947883606,0.32324984669685364,1.5599368810653687,-0.33788567781448364,-0.47192877531051636,0.9107054471969604,-0.595746636390686,-0.8354406952857971,-0.6522910594940186,-0.5923561453819275,0.5381052494049072,0.7195146679878235,3.0435197353363037,0.17783035337924957,-0.12333956360816956,-3.428044080734253,-0.04400762915611267,-0.5637937784194946,0.7428976893424988,11.12008285522461,1.9547456502914429,0.18828481435775757,15.568720817565918,-2.210705041885376,-0.6866183876991272,-6.089781284332275,-0.2573273479938507,4.23482084274292,-0.6364825963973999,-0.17218920588493347,-0.9399123787879944,-0.9226493239402771,-5.780693531036377,0.9014428853988647,0.13811655342578888,-13.056167602539062,-1.3376024961471558,0.9027929306030273,-0.9416332244873047,-6.8606486320495605,-1.5269420146942139,-0.8373106122016907,1.8659600019454956,-7.9146904945373535,15.175436019897461,2.453252077102661,0.8572337627410889,-4.462934494018555,0.9201956987380981,0.8233673572540283,0.4224902391433716,0.6026574373245239,4.342978000640869,-0.738450288772583,-0.7590655088424683,0.10576625168323517,0.05983569473028183,-0.5157292485237122,0.5952815413475037,5.234570026397705,0.9331299066543579,0.021230850368738174,3.915747880935669,4.269658088684082,-18.334564208984375,1.5951822996139526,0.2784577012062073,9.962471961975098,-0.5683843493461609,-0.045407090336084366,0.03822816163301468,0.1425202339887619,3.455287218093872,-0.019820673391222954,0.06784399598836899,-10.222235679626465,-0.14641277492046356,-0.13540543615818024,0.1450299322605133,-1.1967284679412842,0.16849084198474884,0.13643121719360352,1.6679807901382446,6.2523040771484375,-9.505538940429688,3.5447795391082764,-0.19833263754844666,1.7689706087112427,-0.14399071037769318,-0.1432041972875595,0.7011212110519409,0.6222522258758545,4.673606872558594,-0.008584439754486084,-0.07295507192611694,-2.547133684158325,0.00214151362888515,-0.6599137783050537,0.630520761013031,0.6070932149887085,0.6798319816589355,0.5393704175949097,1.8383145332336426,-0.4412475526332855,-0.4561356008052826,0.9578917026519775,-0.8611370325088501,-1.505316972732544,-0.6406863331794739,-0.7834210395812988,0.2812234163284302,0.2251865267753601,-1.9835320711135864,-0.2524726986885071,-0.3196874260902405,-5.981594085693359,-0.48135849833488464,-0.2560022175312042,0.21931490302085876,-3.0050957202911377,0.31983405351638794,0.6167171001434326,-0.9528505206108093,1.6949200630187988,1.7305738925933838,-5.451498508453369,-0.7726221680641174,-7.208858966827393,-0.23025186359882355,-0.3918084502220154,0.8080655932426453,0.7751954793930054,3.7363462448120117,-0.002798341913148761,-0.009848108515143394,-1.6904603242874146,0.002171600703150034,-0.7839649319648743,0.7903695106506348,0.4410097599029541,0.7563319802284241,0.49125581979751587,1.647353172302246,-0.44482430815696716,-0.74808269739151,0.9777480363845825,-0.8255544900894165,-2.7518107891082764,-0.7830323576927185,-0.8034624457359314,0.7177637219429016,0.6590789556503296,4.25484561920166,-0.0019075656309723854,-0.023430785164237022,-2.104555368423462,0.001791029586456716,-0.6859013438224792,0.6684515476226807,0.5619397163391113,0.6518273949623108,0.41676783561706543,1.7595573663711548,-0.5865950584411621,-0.5602244138717651,0.9474308490753174,-0.7422510981559753,-2.2024905681610107,-0.6728046536445618,-0.7261685729026794]},"outputBias":{"rows":20,"columns":1,"weights":[-0.5932721495628357,-0.916555643081665,1.4743269681930542,-0.9989002346992493,1.85432767868042,7.472537040710449,-0.6235618591308594,-0.8503080606460571,-0.8219558596611023,9.601339340209961,0.10995714366436005,0.0802934467792511,0.42452123761177063,-11.362178802490234,7.975761413574219,-0.20490847527980804,0.6207932233810425,-2.6549112796783447,-0.908710241317749,-0.27215996384620667]},"cellActivationMatrix":{"rows":20,"columns":1,"weights":[-0.8706743121147156,-0.8601033091545105,-1.9293934106826782,-0.05841788649559021,1.0247185230255127,0.4645353853702545,-0.12503865361213684,0.8658252358436584,-0.8656066656112671,-0.05154360085725784,-1.734729290008545,-1.5508474111557007,-4.439352512359619,-3.365360736846924,2.566385507583618,-1.1227012872695923,1.7458208799362183,-3.068014144897461,0.8691118955612183,1.0607662200927734]},"cellActivationHidden":{"rows":20,"columns":20,"weights":[-0.6792316436767578,-0.75664883852005,-0.8785963654518127,0.00034395247348584235,0.0027984832413494587,-0.4756424129009247,-0.0029704023618251085,0.7068325281143188,-0.7583632469177246,2.3910796642303467,-1.086035132408142,-0.047689273953437805,-0.9247816205024719,0.15858624875545502,0.7004663944244385,-0.6516173481941223,0.14183717966079712,2.5295629501342773,0.7311926484107971,0.30097901821136475,-0.695357084274292,-0.759258508682251,-0.9437219500541687,0.00009948495426215231,0.006644592620432377,-0.5272685885429382,-0.003065084805712104,0.716902494430542,-0.7591738700866699,2.5558977127075195,-1.0853761434555054,-0.06353046745061874,-1.0650848150253296,0.23848402500152588,0.8448613286018372,-0.6681725382804871,0.17615057528018951,2.730560064315796,0.7375319004058838,0.3384757339954376,0.003843741025775671,0.003648039884865284,5.138699054718018,0.0003195518220309168,0.00012374590733088553,-1.157152533531189,0.0027436059899628162,-0.0036674777511507273,0.0036952244117856026,0.5689191222190857,0.008230607025325298,0.001026114565320313,0.4670853316783905,0.6941571831703186,-0.45132285356521606,0.3852318525314331,-0.0020562289282679558,0.09782515466213226,-0.003604097058996558,-0.00228848191909492,0.0033158748410642147,0.0011520105181261897,-0.20124036073684692,0.0003651440201792866,0.0005748632247559726,0.22402554750442505,0.0006944898632355034,-0.002909134142100811,0.000517509994097054,0.1771634966135025,-0.02811940386891365,0.0015425975434482098,-0.0909251794219017,-0.38608527183532715,0.6490154266357422,0.4252948760986328,-0.002683096332475543,-0.12770725786685944,-0.002020072191953659,-0.003749883733689785,0.0010093448217958212,0.009783262386918068,0.18507838249206543,-0.00009978363959817216,-0.027053043246269226,0.7043970227241516,0.0005152545054443181,-0.004810709040611982,0.008811172097921371,-0.3747749626636505,-0.10237950831651688,-0.0037958307657390833,-0.29421600699424744,0.7434762120246887,1.034171223640442,0.010297073982656002,0.010820281691849232,0.45963460206985474,-0.007187166716903448,0.004091041628271341,0.18260209262371063,0.046142470091581345,-10.21462345123291,0.33954599499702454,-0.3622724115848541,4.836729526519775,0.22017593681812286,-0.10337299853563309,0.04405214264988899,4.570671081542969,-0.2966954708099365,1.0024906396865845,-7.074761390686035,-5.694546222686768,3.4689226150512695,-3.531317949295044,-0.7881605625152588,-2.1767072677612305,-0.06120140850543976,-0.5849227905273438,0.00040718584205023944,0.00042176819988526404,0.4534998834133148,-0.00013301231956575066,-0.003063306910917163,5.10342264175415,-0.4373747706413269,-0.0004204555880278349,-0.000007343367997236783,-2.813760995864868,0.0013234835350885987,0.00047138347872532904,-0.7734756469726562,-0.2580384314060211,-0.03984338417649269,0.5065259337425232,-0.00047934800386428833,-0.06793741136789322,-0.0004262803413439542,-0.0003961842739954591,0.6754167079925537,0.7461097836494446,0.8881065249443054,0.00008974982483778149,-0.004201543517410755,0.493835985660553,0.0030110329389572144,-0.6999138593673706,0.7478757500648499,-2.5027883052825928,1.0827420949935913,0.05221312493085861,0.9930973649024963,-0.22393028438091278,-0.79591304063797,0.6655482649803162,-0.15143969655036926,-2.6084957122802734,-0.7225601077079773,-0.3056444823741913,-0.7047461867332458,-0.7673752307891846,-0.9352741837501526,-0.00006830477650510147,0.005924506112933159,-0.5122674107551575,-0.0030848996248096228,0.7265421152114868,-0.7664644718170166,2.524155616760254,-1.0783413648605347,-0.06660395860671997,-1.0501946210861206,0.17612913250923157,0.8255179524421692,-0.6645641922950745,0.1824556589126587,2.7311174869537354,0.746364414691925,0.35349002480506897,-0.5530280470848083,-0.5667398571968079,-3.7066893577575684,0.004083616193383932,0.44084975123405457,-10.809362411499023,0.3330935835838318,0.5535393357276917,-0.5801395773887634,-10.990657806396484,-0.3259732127189636,-0.41474649310112,0.8712393045425415,2.727246046066284,2.7553038597106934,-3.1636769771575928,0.5101338624954224,2.0294029712677,0.5665627717971802,0.44246307015419006,-0.42217135429382324,-0.4485137164592743,-0.5341706871986389,0.0018222917569801211,0.0963565781712532,-0.13377827405929565,-0.0038712171372026205,0.44227585196495056,-0.43359142541885376,2.0265073776245117,-0.5299357175827026,0.18217173218727112,0.1191447526216507,-0.40866148471832275,0.17902317643165588,-0.6449346542358398,-0.14729328453540802,1.7927154302597046,0.439362108707428,0.1552707850933075,-0.08952116966247559,-0.1613687425851822,-0.41279613971710205,-0.00009803232387639582,0.006313136778771877,-0.44486600160598755,-0.0021078588906675577,0.11967053264379501,-0.16248220205307007,1.6903061866760254,-0.294708251953125,0.024809138849377632,0.6596205234527588,0.029574768617749214,-0.01423913985490799,-0.6443073749542236,-0.05912255123257637,0.6475737690925598,0.1400013267993927,-0.0149298757314682,0.2832947373390198,0.24690844118595123,-0.8324933052062988,0.13567785918712616,0.08330322057008743,-2.5659873485565186,-0.2281097024679184,-0.2235655039548874,0.27120789885520935,-1.0019088983535767,0.3361559808254242,0.07039804011583328,0.016974905505776405,2.85697078704834,1.231557011604309,-2.889112710952759,-0.2727268636226654,-1.6159944534301758,-0.24527420103549957,-0.27461424469947815,0.8067843914031982,0.7302221655845642,-1.2647531032562256,-0.8254861831665039,-0.8027378916740417,0.43723833560943604,1.2251455783843994,-0.7706547975540161,0.757426917552948,5.7137861251831055,0.8093628287315369,1.1854796409606934,2.3772895336151123,1.3491331338882446,-2.5331039428710938,-0.17048116028308868,-1.1820846796035767,0.4326997995376587,-0.7528281807899475,-0.8563060760498047,-0.02287515625357628,-0.027086496353149414,-2.0268425941467285,-0.1014794260263443,0.039229318499565125,-2.4872422218322754,0.06221456080675125,0.012063469737768173,-0.029935846105217934,1.2530391216278076,-0.09091935306787491,0.05559874325990677,0.821709394454956,-0.3473335802555084,-1.0065996646881104,-0.43101584911346436,0.00490390183404088,-0.7811221480369568,0.020335281267762184,-0.02047940529882908,0.014988858252763748,0.008318874053657055,0.8049845099449158,-0.27784663438796997,0.19426043331623077,-0.7930967807769775,-0.014799175783991814,-0.00853646919131279,0.009065065532922745,-16.697956085205078,0.011640138924121857,0.002049168571829796,-14.08086109161377,-2.763550281524658,1.1681127548217773,0.9210451245307922,-0.034794870764017105,-0.5500233769416809,-0.009151512756943703,-0.010977506637573242,0.24297182261943817,0.35615742206573486,0.610204815864563,0.0005480501567944884,-0.032196905463933945,0.5479056239128113,0.0024035226088017225,-0.2938686013221741,0.35412147641181946,-1.8019436597824097,0.4992540180683136,-0.03783853352069855,-0.6419282555580139,-0.4735259711742401,0.11322523653507233,0.6654998660087585,0.09286685287952423,-1.3863556385040283,-0.32446736097335815,-0.014074026606976986,-0.04713661968708038,-0.04611058160662651,-1.8981035947799683,0.14659535884857178,-0.031538255512714386,6.774639129638672,-0.2746697962284088,0.04782513529062271,-0.049470655620098114,1.1423907279968262,-0.2452622503042221,-0.053649768233299255,-1.0175468921661377,0.13085050880908966,-0.33449235558509827,-3.666266679763794,0.05123212933540344,-0.25397858023643494,0.046557143330574036,0.04137367010116577,0.6826820373535156,0.7497925758361816,0.9152055382728577,-0.00009183208749163896,-0.005289643537253141,0.5135486125946045,0.0029907298739999533,-0.7057638168334961,0.7506285309791565,-2.535083532333374,1.0789414644241333,0.05743980407714844,1.0431218147277832,-0.2327771931886673,-0.8266762495040894,0.6696125268936157,-0.16246284544467926,-2.6753151416778564,-0.7272688746452332,-0.3198625147342682,0.4156034290790558,0.5168920755386353,0.3306598365306854,0.000010313121492799837,0.0011570402421057224,0.4793979525566101,0.0023077335208654404,-0.45240774750709534,0.5241769552230835,-2.082578182220459,0.8123403191566467,0.004816111177206039,-0.1488570123910904,-0.4806688129901886,0.015195377171039581,0.6648664474487305,-0.027043456211686134,-1.8684858083724976,-0.4838184416294098,-0.11554598063230515]},"cellActivationBias":{"rows":20,"columns":1,"weights":[-1.1705541610717773,-1.0851733684539795,-2.4737701416015625,0.016492856666445732,1.7826402187347412,-7.615797519683838,-0.1355053037405014,1.090143084526062,-1.1265466213226318,-5.759478569030762,-1.4776115417480469,-1.0983703136444092,-0.0011732927523553371,-0.44801828265190125,2.6182868480682373,0.10761825740337372,1.2787981033325195,-0.8235594630241394,1.0751245021820068,1.0553457736968994]}}],"outputConnector":{"rows":1,"columns":20,"weights":[0.7791789174079895,0.8346239328384399,19.349550247192383,-0.30114424228668213,-0.6314226388931274,-1.1237937211990356,-0.1701287031173706,-0.8277068734169006,0.8062251806259155,-0.3499276340007782,0.5132870674133301,0.6287943720817566,0.3532485067844391,0.4618331789970398,-0.7107412815093994,1.9679725170135498,-0.6302822828292847,-4.353647232055664,-0.8273166418075562,-0.7245928049087524]},"output":{"rows":1,"columns":1,"weights":[16.96858024597168]},"inputLookup":{"h":0,"d":1,"a":2},"inputLookupLength":3,"outputLookup":{"fthg":0,"ftag":1},"outputLookupLength":2};
  var output = [];
  var states = [];
  var prevStates;
  var state;
  var max = input.length + 1;
  for (var _i = 0; _i < max; _i++) {
    prevStates = states;
    states = [];
    states[0] = {
      name: 'forwardFn',
      left: undefined,
      right: undefined,
      product: new Matrix(1, 1)
    };
    states[1] = {
      name: 'multiply',
      left: json.hiddenLayers[0].inputMatrix,
      right: states[0].product,
      product: new Matrix(20, 1)
    };
    states[2] = {
      name: 'multiply',
      left: json.hiddenLayers[0].inputHidden,
      right: typeof prevStates[25] === 'object' ? prevStates[25].product : new Matrix(20, 1),
      product: new Matrix(20, 1)
    };
    states[3] = {
      name: 'add',
      left: states[1].product,
      right: states[2].product,
      product: new Matrix(20, 1)
    };
    states[4] = {
      name: 'add',
      left: states[3].product,
      right: json.hiddenLayers[0].inputBias,
      product: new Matrix(20, 1)
    };
    states[5] = {
      name: 'sigmoid',
      left: states[4].product,
      right: undefined,
      product: new Matrix(20, 1)
    };
    states[6] = {
      name: 'multiply',
      left: json.hiddenLayers[0].forgetMatrix,
      right: states[0].product,
      product: new Matrix(20, 1)
    };
    states[7] = {
      name: 'multiply',
      left: json.hiddenLayers[0].forgetHidden,
      right: states[2].right,
      product: new Matrix(20, 1)
    };
    states[8] = {
      name: 'add',
      left: states[6].product,
      right: states[7].product,
      product: new Matrix(20, 1)
    };
    states[9] = {
      name: 'add',
      left: states[8].product,
      right: json.hiddenLayers[0].forgetBias,
      product: new Matrix(20, 1)
    };
    states[10] = {
      name: 'sigmoid',
      left: states[9].product,
      right: undefined,
      product: new Matrix(20, 1)
    };
    states[11] = {
      name: 'multiply',
      left: json.hiddenLayers[0].outputMatrix,
      right: states[0].product,
      product: new Matrix(20, 1)
    };
    states[12] = {
      name: 'multiply',
      left: json.hiddenLayers[0].outputHidden,
      right: states[2].right,
      product: new Matrix(20, 1)
    };
    states[13] = {
      name: 'add',
      left: states[11].product,
      right: states[12].product,
      product: new Matrix(20, 1)
    };
    states[14] = {
      name: 'add',
      left: states[13].product,
      right: json.hiddenLayers[0].outputBias,
      product: new Matrix(20, 1)
    };
    states[15] = {
      name: 'sigmoid',
      left: states[14].product,
      right: undefined,
      product: new Matrix(20, 1)
    };
    states[16] = {
      name: 'multiply',
      left: json.hiddenLayers[0].cellActivationMatrix,
      right: states[0].product,
      product: new Matrix(20, 1)
    };
    states[17] = {
      name: 'multiply',
      left: json.hiddenLayers[0].cellActivationHidden,
      right: states[2].right,
      product: new Matrix(20, 1)
    };
    states[18] = {
      name: 'add',
      left: states[16].product,
      right: states[17].product,
      product: new Matrix(20, 1)
    };
    states[19] = {
      name: 'add',
      left: states[18].product,
      right: json.hiddenLayers[0].cellActivationBias,
      product: new Matrix(20, 1)
    };
    states[20] = {
      name: 'tanh',
      left: states[19].product,
      right: undefined,
      product: new Matrix(20, 1)
    };
    states[21] = {
      name: 'multiplyElement',
      left: states[10].product,
      right: states[2].right,
      product: new Matrix(20, 1)
    };
    states[22] = {
      name: 'multiplyElement',
      left: states[5].product,
      right: states[20].product,
      product: new Matrix(20, 1)
    };
    states[23] = {
      name: 'add',
      left: states[21].product,
      right: states[22].product,
      product: new Matrix(20, 1)
    };
    states[24] = {
      name: 'tanh',
      left: states[23].product,
      right: undefined,
      product: new Matrix(20, 1)
    };
    states[25] = {
      name: 'multiplyElement',
      left: states[15].product,
      right: states[24].product,
      product: new Matrix(20, 1)
    };
    states[26] = {
      name: 'multiply',
      left: json.outputConnector,
      right: states[25].product,
      product: new Matrix(1, 1)
    };
    states[27] = {
      name: 'add',
      left: states[26].product,
      right: json.output,
      product: new Matrix(1, 1)
    };
    for (var stateIndex = 0, stateMax = 28; stateIndex < stateMax; stateIndex++) {
      state = states[stateIndex];
      var product = state.product;
      var left = state.left;
      var right = state.right;

      switch (state.name) {
case 'forwardFn':
product.weights = _i < input.length ? input[_i]: prevStates[prevStates.length - 1].product.weights;
break;
        case 'multiply': //compiled from src/recurrent/matrix/multiply.js
          
            const leftRows = left.rows;
            const leftColumns = left.columns;
            const rightColumns = right.columns;
            // loop over rows of left
            for (let leftRow = 0; leftRow < leftRows; leftRow++) {
                const leftRowBase = leftColumns * leftRow;
                const rightRowBase = rightColumns * leftRow;
                // loop over cols of right
                for (let rightColumn = 0; rightColumn < rightColumns; rightColumn++) {
                    // dot product loop
                    let dot = 0;
                    // loop over columns of left
                    for (let leftColumn = 0; leftColumn < leftColumns; leftColumn++) {
                        const rightColumnBase = rightColumns * leftColumn;
                        const leftIndex = leftRowBase + leftColumn;
                        const rightIndex = rightColumnBase + rightColumn;
                        dot += left.weights[leftIndex] * right.weights[rightIndex];
                        
                        
                    }
                    product.weights[rightRowBase + rightColumn] = dot;
                }
            }
        
          break;
        case 'add': //compiled from src/recurrent/matrix/add.js
          
            for (let i = 0; i < left.weights.length; i++) {
                product.weights[i] = left.weights[i] + right.weights[i];
                
            }
        
          break;
        case 'sigmoid': //compiled from src/recurrent/matrix/sigmoid.js
          
            // sigmoid nonlinearity
            for (let i = 0; i < left.weights.length; i++) {
                product.weights[i] = 1 / (1 + Math.exp(-left.weights[i]));
                
            }
        
          break;
        case 'tanh': //compiled from src/recurrent/matrix/tanh.js
          
            // tanh nonlinearity
            for (let i = 0; i < left.weights.length; i++) {
                product.weights[i] = Math.tanh(left.weights[i]);
                
            }
        
          break;
        case 'multiplyElement': //compiled from src/recurrent/matrix/multiply-element.js
          
            const { weights } = left;
            for (let i = 0; i < weights.length; i++) {
                product.weights[i] = left.weights[i] * right.weights[i];
                
            }
        
          break;
      }
    }
    if (_i >= input.length - 1) { output.push(state.product.weights); }
  }
  return lookupOutput(output);
  function lookupInput(input) {
          var table = {"h":0,"d":1,"a":2};
          var result = [];
          for (var p in table) {
            result.push(Float32Array.from([input[p]]));
          }
          return result;
        }
  function lookupOutput(output) {
          var table = {"fthg":0,"ftag":1};
          var result = {};
          for (var p in table) {
            result[p] = output[table[p]][0];
          }
          return result;
        }

  function Matrix(rows, columns) {
    this.rows = rows;
    this.columns = columns;
    this.weights = zeros(rows * columns);
  }
  function zeros$1(size) {
    return new Float32Array(size);
}
  function softmax(matrix) {
    // probability volume
    const result = new Matrix(matrix.rows, matrix.columns);
    let maxVal = -999999;
    for (let i = 0; i < matrix.weights.length; i++) {
        if (matrix.weights[i] > maxVal) {
            maxVal = matrix.weights[i];
        }
    }
    let s = 0;
    for (let i = 0; i < matrix.weights.length; i++) {
        result.weights[i] = Math.exp(matrix.weights[i] - maxVal);
        s += result.weights[i];
    }
    for (let i = 0; i < matrix.weights.length; i++) {
        result.weights[i] /= s;
    }
    // no backward pass here needed
    // since we will use the computed probabilities outside
    // to set gradients directly on m
    return result;
}
  function randomFloat(min, max) {
    return Math.random() * (max - min) + min;
}
  function sampleI(matrix) {
    // sample argmax from w, assuming w are
    // probabilities that sum to one
    const r = randomFloat(0, 1);
    const w = matrix.weights;
    let x = 0;
    let i = 0;
    while (true) {
        x += w[i];
        if (x > r) {
            return i;
        }
        i++;
    }
}
  function maxI(matrix) {
    // argmax of array w
    const { weights } = matrix;
    let maxv = weights[0];
    let maxix = 0;
    for (let i = 1; i < weights.length; i++) {
        const v = weights[i];
        if (v < maxv)
            continue;
        maxix = i;
        maxv = v;
    }
    return maxix;
}
};