module.exports = function anonymous(rawInput
) {

  var input = lookupInput(rawInput);
  var json = {"type":"LSTMTimeStep","options":{"inputSize":1,"inputRange":0,"hiddenLayers":[20],"outputSize":1,"decayRate":0.999,"smoothEps":1e-8,"regc":0.000001,"clipval":5,"maxPredictionLength":100,"dataFormatter":{"indexTable":{},"characterTable":{},"characters":[],"specialIndexes":[]}},"hiddenLayers":[{"inputMatrix":{"rows":20,"columns":1,"weights":[-1.4255423545837402,-1.2932480573654175,-4.2150702476501465,0.9034681916236877,-5.062965393066406,1.6108076572418213,-6.462926864624023,-1.5753612518310547,-3.696240186691284,-1.3031753301620483,-1.1641511917114258,-1.2943233251571655,-1.2816084623336792,-1.339948296546936,-1.3033246994018555,-1.2750235795974731,-1.2626839876174927,-1.0717412233352661,-1.2452867031097412,-4.902760982513428]},"inputHidden":{"rows":20,"columns":20,"weights":[-0.09448883682489395,-0.0014631592202931643,0.4922693371772766,-0.32454198598861694,0.14743055403232574,2.285752534866333,-0.19239161908626556,-0.001062462804839015,-0.15815553069114685,0.0018478553975000978,-0.003807235276326537,-0.0010691448114812374,-0.0010368875227868557,0.24365396797657013,-0.006197044160217047,0.0010481162462383509,-0.0025032791309058666,0.07770002633333206,-0.0025517053436487913,-0.012207824736833572,0.006788101512938738,-0.001539888558909297,0.5822232961654663,0.049344874918460846,0.0277627594769001,2.698050022125244,-0.019127150997519493,0.00047195254592224956,-0.11459618806838989,-0.0010580462403595448,-0.00006835711974417791,0.00014612362429033965,0.00036036057281307876,-0.024215487763285637,-0.00047851065755821764,0.002172434702515602,0.0016654570354148746,0.016436466947197914,0.0015952916583046317,-0.0056367735378444195,0.03644759580492973,-0.016447801142930984,-8.937559127807617,8.226078033447266,0.23500189185142517,-0.9966893792152405,-17.66568374633789,-0.011756855994462967,-15.260025024414062,0.0077768778428435326,-0.05974497273564339,-0.0027060273569077253,-0.0013077652547508478,0.04705505073070526,-0.021980542689561844,0.057481344789266586,-0.05040324479341507,0.650844156742096,-0.030412908643484116,-15.82502269744873,0.06834586709737778,-0.26604384183883667,40.40394973754883,12.28446102142334,0.6610524654388428,6.661374092102051,-21.065412521362305,-0.09628831595182419,-3.4089953899383545,0.2833295464515686,-0.2920195460319519,-0.27505579590797424,-0.24559339880943298,0.14335407316684723,-0.29748785495758057,0.18987677991390228,-0.2467557042837143,2.4801270961761475,-0.2754983603954315,2.186121702194214,-0.07906995713710785,-0.0035348159726709127,1.422916293144226,0.2776836156845093,0.33396604657173157,6.398242950439453,-0.7160118818283081,0.002274972852319479,0.04547492787241936,-0.000012859994967584498,-0.0009216897888109088,0.0012236384209245443,-0.0009013534872792661,-0.27397653460502625,-0.006131856702268124,0.0002513405052013695,-0.000007188784366007894,0.5206907987594604,-0.0003806600871030241,0.008159937337040901,-0.0023639146238565445,0.0009781758999451995,-0.12859293818473816,-0.14548592269420624,-0.0603640191257,-3.045872211456299,1.051617980003357,0.0019737081602215767,0.5170573592185974,-0.0010623736307024956,0.0007451057317666709,0.0006793671054765582,0.0002901826228480786,0.026415398344397545,0.0014320771442726254,0.00020770200353581458,0.0002722009376157075,-1.2635223865509033,0.000912875693757087,0.6271423101425171,0.3027949333190918,-0.4032164514064789,39.58415603637695,-6.9895782470703125,-1.6203725337982178,2.5608603954315186,-8.505278587341309,1.0207860469818115,-19.353118896484375,0.3718535304069519,-0.3459198772907257,-0.29812851548194885,-0.19972819089889526,0.3338271677494049,-0.3672395646572113,0.30971261858940125,-0.38211047649383545,7.592464447021484,-0.39709189534187317,5.793220520019531,-0.003579229349270463,-0.0006279790541157126,0.8824435472488403,-0.027717674151062965,0.07974713295698166,3.449319362640381,-0.23630554974079132,-0.005948157049715519,-0.3976154327392578,0.0022010058164596558,-0.012226808816194534,-0.0004156016802880913,-0.0004365355707705021,-0.02637728862464428,-0.001269597909413278,-0.0006539660971611738,0.00041340955067425966,0.00981198437511921,-0.0007526815170422196,-0.1907515823841095,-0.1224808618426323,0.12002512067556381,-9.960762977600098,6.612476348876953,-0.90899658203125,-4.5076775550842285,28.483753204345703,-0.5440880656242371,-1.375718116760254,-0.1080247238278389,0.01998436450958252,0.1418841928243637,0.10861530900001526,-0.0828024223446846,0.12211082130670547,-0.10841847211122513,0.09724853187799454,11.813578605651855,0.09721492230892181,0.44411104917526245,0.005370809230953455,0.0006165995728224516,0.6707054972648621,0.05428439751267433,0.02671407349407673,2.778263807296753,-0.00522061949595809,0.0003762875567190349,-0.12813925743103027,0.004756963811814785,-0.005905563943088055,6.310913249762962e-7,0.0013191455509513617,-0.032318178564310074,-0.0011398972710594535,0.001934556756168604,0.0016478548059239984,0.015624305233359337,0.001505754655227065,-0.009144431911408901,0.010820228606462479,0.00023214018438011408,0.7533424496650696,0.08839242905378342,0.022732993587851524,2.770747423171997,-0.014173255302011967,0.0007586082210764289,-0.12637671828269958,-0.0016666451701894403,-0.025834184139966965,0.0008297726744785905,0.00270608882419765,-0.03233771398663521,-0.004819927737116814,0.006464539095759392,0.0002045186993200332,0.09959600120782852,0.00037367118056863546,-0.004707822110503912,0.0029498001094907522,-0.0008091562194749713,0.4442392587661743,0.05935576185584068,0.030554769560694695,2.380587577819824,-0.05248348042368889,0.001298783696256578,-0.15314841270446777,0.0017732334090396762,-0.005222692154347897,-0.0014836760237812996,-0.00022340436407830566,-0.025652863085269928,-0.00006086222128942609,0.00063405028777197,0.0006158108008094132,0.06934446841478348,-0.00036655328585766256,-0.006988795939832926,0.0018690485740080476,-0.00010939177445834503,0.5284740924835205,0.03664647415280342,0.02260991744697094,2.710319757461548,-0.017593447118997574,0.000416449795011431,-0.11548534035682678,-0.0018267802661284804,0.0007778608705848455,0.0003908129292540252,0.001811405410990119,-0.018163925036787987,-0.00010144667612621561,0.002978766104206443,0.0032783402130007744,0.0389670729637146,0.0031606932170689106,-0.006244232412427664,-0.00032354044378735125,-0.003459661267697811,0.7092720866203308,0.016229363158345222,0.11570631712675095,2.886737823486328,0.38987866044044495,-0.001572395209223032,0.04426921531558037,0.00222368398681283,-0.002967019798234105,-0.00109117163810879,-0.0006713703623972833,-0.05582811310887337,-0.007192904129624367,-0.004487137775868177,-0.0024820498656481504,0.05546387657523155,-0.0023627392947673798,-0.01615302637219429,-0.00924614816904068,-0.0010942394146695733,0.7095938920974731,0.03674164414405823,0.07634256780147552,2.816622495651245,-0.00912206619977951,-0.00041900150245055556,-0.115056611597538,0.0005966390017420053,-0.002863700268790126,0.0002828582946676761,-0.00041396840242668986,-0.030288364738225937,-0.03786926344037056,0.00023793085711076856,-0.0003635755565483123,0.010666185058653355,-0.0006912258104421198,-0.008799420669674873,0.005159283988177776,0.0015709298895671964,0.5309930443763733,0.056009963154792786,0.022541534155607224,2.639362096786499,-0.022223155945539474,0.00031977923936210573,-0.1292017549276352,-0.0016397443832829595,0.00037208516732789576,0.00035694445250555873,0.0021727599669247866,-0.020553722977638245,-0.0005019789678044617,0.00613770866766572,0.00268896808847785,0.0040968782268464565,0.002595435595139861,-0.01627364382147789,0.00696825934574008,0.001714010606519878,0.8060739636421204,0.03150172904133797,0.02504940889775753,2.883737087249756,-0.002734616631641984,0.0006778924143873155,-0.14030808210372925,-0.00195499905385077,-0.0028933011926710606,0.0007237730314955115,0.0029491297900676727,-0.03371262550354004,-0.000698334479238838,0.0035639714915305376,0.0026668813079595566,0.04808187112212181,0.003256646217778325,-0.005795865785330534,-0.06531991064548492,0.22272934019565582,-1.5287681818008423,-6.4364519119262695,-9.318263053894043,2.0014679431915283,2.0681586265563965,-0.7375275492668152,0.0861428827047348,-0.22150778770446777,0.2209380716085434,0.0511665940284729,0.11235183477401733,-0.2706262767314911,0.2637084424495697,-0.11097294837236404,0.2800776958465576,14.009661674499512,0.2219146341085434,3.879577875137329,0.0071433610282838345,0.0016637964872643352,0.6074855923652649,0.03448118269443512,0.024702230468392372,2.7038044929504395,-0.033810824155807495,0.00036631867988035083,-0.14329451322555542,-0.0012538320152089,-0.00409608194604516,0.00017760445189196616,0.0028955847956240177,-0.03459591045975685,-0.001163603039458394,0.0037217300850898027,0.0032785998191684484,0.04090781509876251,0.003124457551166415,-0.006572877988219261,-0.04419754073023796,0.012383049353957176,-7.148149013519287,-5.522192001342773,-0.7925464510917664,2.477743625640869,1.5652031898498535,0.07396166771650314,-0.5296074151992798,0.013297304511070251,-0.06994300335645676,0.09344713389873505,0.04162885248661041,0.02880435809493065,-0.049360036849975586,-0.023636218160390854,-0.08539792150259018,1.376926302909851,-0.009964561089873314,-15.229552268981934]},"inputBias":{"rows":20,"columns":1,"weights":[-1.138269066810608,-0.8724069595336914,8.934844970703125,6.60200834274292,1.8832067251205444,5.384890079498291,16.598661422729492,-0.46844765543937683,-2.2172813415527344,-0.8802276253700256,-0.8542518019676208,-0.9387417435646057,-0.9070897102355957,-0.8890897035598755,-0.8458937406539917,-0.9619731307029724,-0.8342494368553162,0.3525437116622925,-0.8584078550338745,7.287825107574463]},"forgetMatrix":{"rows":20,"columns":1,"weights":[-0.012680166400969028,-0.03097364492714405,-3.1637113094329834,-3.3577258586883545,-1.5873056650161743,2.309405565261841,-2.747248411178589,-0.016723232343792915,-0.8263131976127625,-0.03787412866950035,-0.18530899286270142,-0.07655516266822815,-0.0270419642329216,-0.10004400461912155,-0.06065927445888519,-0.10128501057624817,-0.05260981619358063,-2.694027900695801,-0.04321072995662689,-2.845771074295044]},"forgetHidden":{"rows":20,"columns":20,"weights":[-0.03364912420511246,-0.0003195017925463617,-0.007377755828201771,-0.04054851084947586,0.0045822979882359505,0.028082342818379402,0.0419314019382,-0.0000065686335801729,-0.0559256449341774,0.00018175433797296137,-0.0011832538293674588,-0.00014505202125292271,-0.00024017742543946952,0.004574981052428484,-0.0003949503879994154,0.0009893825044855475,-0.0005181015585549176,0.12390641123056412,-0.0005100438720546663,-0.0000496120446769055,0.0002732281282078475,-0.0009795638034120202,-0.0002733280707616359,0.006550788879394531,0.00033476902171969414,0.009662791155278683,-0.003952887840569019,0.00031589719583280385,-0.004669635556638241,-0.0005298818578012288,0.0002231375256087631,0.00011730396363418549,0.00039945176104083657,0.00005811266237287782,-0.0000065364611145923845,0.0009929408552125096,0.0005360158393159509,0.003912487532943487,0.0005278614698909223,0.0003900445008184761,-0.23154686391353607,0.23531246185302734,-3.3493385314941406,-15.75332260131836,-6.026762008666992,-0.051105037331581116,8.904166221618652,-0.10240941494703293,-10.64173412322998,-0.22847265005111694,0.23183764517307281,0.26636919379234314,0.2326778769493103,-0.1953810453414917,0.19664260745048523,-0.20076733827590942,0.21152576804161072,-3.8918464183807373,0.22358818352222443,-4.217416286468506,2.4029042720794678,-2.324937343597412,-6.368236541748047,-2.8158791065216064,5.0607194900512695,-1.2923481464385986,3.2936573028564453,0.8776559233665466,-2.2668228149414062,2.2450146675109863,-2.6125564575195312,-1.8684711456298828,-1.9900494813919067,2.2294487953186035,-2.320298433303833,2.3196887969970703,-2.4785521030426025,6.68263578414917,-2.405660390853882,-8.337002754211426,-0.0034084906801581383,-0.0015412734355777502,-0.04003861919045448,0.5194288492202759,-0.14280283451080322,0.4915405511856079,-0.3424111306667328,-0.0017680303426459432,0.4548804461956024,0.001338714500889182,-0.003622374264523387,-0.0025297978427261114,-0.0011829329887405038,0.2503407895565033,-0.011837092228233814,0.0004683474253397435,-0.001853542635217309,0.04848988726735115,-0.0018032235093414783,0.000788531731814146,0.14517571032047272,-0.11612249165773392,2.8818066120147705,0.780471682548523,-2.3783345222473145,-4.228234767913818,-5.914707660675049,0.701296329498291,-9.368276596069336,0.24846906960010529,-0.25123557448387146,0.10046643763780594,-0.08351583778858185,0.09764344990253448,-0.1597629189491272,0.07935125380754471,-0.2860877513885498,11.477925300598145,-0.146342933177948,-1.9479554891586304,-0.0006390722119249403,0.0005449167219921947,1.829369306564331,1.025254249572754,0.021649790927767754,3.249636650085449,0.7220545411109924,-0.005687064025551081,0.046215757727622986,-0.0002620094455778599,-0.0001406319352099672,-0.004431751556694508,0.0004155646020080894,0.027369437739253044,-0.009038920514285564,-0.00004123523467569612,0.0002774252789095044,0.3823557496070862,0.0002706355007831007,-0.023953605443239212,0.0000048801457523950376,0.00046434011892415583,0.001353100873529911,0.006096953991800547,0.00011828343849629164,0.023697299882769585,-0.0027204935904592276,0.004181792493909597,-0.008479115553200245,-0.0011554951779544353,0.00044330008677206933,0.001654837396927178,0.00041777046862989664,-0.0023151892237365246,0.0012137707090005279,0.0003058979636989534,0.0009128751116804779,0.0022877638693898916,0.0006712116883136332,0.002517185639590025,0.00430526677519083,0.0007414806168526411,0.36883682012557983,-0.5140314102172852,0.08913325518369675,0.08850614726543427,-0.20568256080150604,-0.0006569742690771818,-0.833770751953125,0.0006201391806825995,-0.003995876759290695,-0.0004990162560716271,-0.00037515111034736037,0.021536624059081078,-0.0009668904240243137,-0.0002332082367502153,-0.00019815698033198714,0.06385235488414764,-0.00023132497153710574,-0.12488012760877609,0.00023145282466430217,0.0004946062108501792,0.0012769894674420357,0.003897713031619787,0.00030683568911626935,0.018077773973345757,-0.005297242663800716,0.0007170701865106821,-0.0049383738078176975,-0.00027371852775104344,0.0005854597548022866,0.00037928440724499524,0.0007211583433672786,0.00015147862723097205,0.0001667636533966288,0.001145205576904118,0.0009240789222531021,0.0057571628130972385,0.0008997476543299854,0.0007084531825967133,0.002231480786576867,-0.00003371286584297195,0.01719922013580799,0.030713733285665512,0.0003821399004664272,0.06896377354860306,-0.011304090730845928,0.0005336097674444318,-0.014880754053592682,-0.0011107627069577575,-0.008413500152528286,0.0004783232288900763,0.0011151029029861093,0.002100064419209957,-0.001591560197994113,0.00394405098631978,-0.0007510828436352313,0.014245377853512764,-0.0004798245499841869,0.0010358045110478997,0.00023390678688883781,-0.00031051039695739746,0.0005589669453911483,0.015515296719968319,0.0005290273693390191,0.022778164595365524,-0.00826648436486721,0.0013641554396599531,-0.001780787599273026,-0.000013227467206888832,0.0005840380908921361,0.00018611017731018364,0.0001068639030563645,-0.0029951189644634724,0.000588787894230336,0.0004387955414131284,0.0005974469240754843,0.0040693460032343864,0.000019132810848532245,0.0006152201094664633,0.00023021054221317172,0.0008284568903036416,-0.0007096170447766781,0.0017012726748362184,0.0004882033681496978,0.0037559717893600464,-0.002723417244851589,0.00032993030617944896,-0.005156275350600481,-0.001007920945994556,0.0011358879273757339,0.0002687728265300393,0.0009776285151019692,0.0003295894421171397,0.00002480710099916905,0.00149429589509964,0.0014467502478510141,0.0017382495570927858,0.0013319166610017419,0.0005973122897557914,-0.000003650090093287872,-0.000428238941822201,0.00017643062165006995,0.017074216157197952,0.025065667927265167,0.05064691975712776,-0.007358172442764044,-0.00000388314037991222,-0.012638149783015251,0.00026560178957879543,-0.0013055431190878153,-0.00014807259140070528,-0.0003566643572412431,-0.019450057297945023,-0.0006228749989531934,0.0005818023928441107,-0.0007384889177046716,0.013798234984278679,-0.0006926304777152836,-0.00007083704986143857,0.0015352274058386683,-0.0002546683244872838,0.0006358503014780581,0.010377614758908749,0.01734570972621441,0.041045647114515305,-0.0058734845370054245,-0.00017955804651137441,0.011177307926118374,0.00010219616524409503,-0.0006241518422029912,0.000004857154181081569,-0.0001807981461752206,-0.007709234952926636,-0.001345250871963799,0.00017312215641140938,-0.0002223117626272142,0.00196073274128139,-0.00034147381666116416,0.000051946502935606986,0.0018086640629917383,0.0008182671735994518,-0.0006015727994963527,0.02073787711560726,0.0002917660167440772,0.0195161085575819,-0.006090499926358461,0.00011607642227318138,-0.005142466630786657,-0.0011018795194104314,0.0012129934038966894,0.0002722179051488638,0.001086262403987348,-0.00040330245974473655,-0.00018340005772188306,0.0035320185124874115,0.0013182791881263256,0.002969390945509076,0.001306285965256393,0.0007966451230458915,0.000465052347863093,0.0007790824165567756,-0.0010200707474723458,0.007153824903070927,0.00019439117750152946,0.008665635250508785,-0.0024764593690633774,0.0005871179164387286,-0.006144300103187561,-0.0013383290497586131,0.0005478907260112464,0.0005554751260206103,0.001389254699461162,0.0003872575762216002,-0.0000695052367518656,0.0020083258859813213,0.0008741319761611521,0.00303740450181067,0.001466880552470684,0.0008784953970462084,0.03453540429472923,-0.04916210100054741,13.61530590057373,4.783143997192383,0.4618866443634033,0.8559509515762329,1.1621193885803223,0.019124094396829605,-0.6625849008560181,0.03756958246231079,-0.08093955367803574,-0.06545035541057587,-0.03037242218852043,0.047813769429922104,-0.049983084201812744,0.04898263141512871,-0.06225994601845741,-2.10471773147583,-0.05914284661412239,-2.4491097927093506,0.0005053173517808318,0.0008357509505003691,-0.0005871050525456667,0.004621898755431175,0.00024392777413595468,0.007729264907538891,-0.003543446073308587,0.00048145902110263705,-0.006465346086770296,-0.001351787825115025,0.0007540137739852071,0.00034464587224647403,0.0014098850078880787,0.000425838865339756,-0.00018110247037839144,0.0021363478153944016,0.0015363957500085235,0.0028465616051107645,0.0015736861387267709,0.0008649930823594332,-0.00009928044892149046,0.0006400826969183981,-0.18513420224189758,-1.8778828382492065,-0.001134146237745881,-0.29826030135154724,1.6261990070343018,0.002930140821263194,-0.024808896705508232,-0.0011013572802767158,0.0006387867615558207,0.0013077608309686184,0.0005743362125940621,-0.00024151969410013407,0.0013241175329312682,0.00029679868021048605,0.0009151239064522088,1.2809219360351562,0.0008441338432021439,-0.22907376289367676]},"forgetBias":{"rows":20,"columns":1,"weights":[0,0,0,0,0,0,0,0,0,0,0,0,0,0,0,0,0,0,0,0]},"outputMatrix":{"rows":20,"columns":1,"weights":[-1.1563382148742676,-1.3795796632766724,0.6767028570175171,-0.8422818779945374,0.9561920762062073,2.0711326599121094,-2.7352640628814697,-1.6390278339385986,-3.1350882053375244,-1.351322889328003,-1.3924366235733032,-1.3158451318740845,-1.3039283752441406,-1.3367635011672974,-1.3650109767913818,-1.2932944297790527,-1.404923439025879,3.69419002532959,-1.3864631652832031,1.3076539039611816]},"outputHidden":{"rows":20,"columns":20,"weights":[0.08448030799627304,-0.004629254341125488,0.608789324760437,0.587858259677887,-0.07406213134527206,2.4561262130737305,-0.1027783453464508,-0.004520748276263475,0.07260295748710632,0.004966940265148878,-0.00914010964334011,-0.00471529783681035,-0.002132957801222801,0.03370239958167076,-0.018464338034391403,0.0019183361437171698,-0.006279789377003908,0.08770396560430527,-0.0063521587289869785,-0.010843091644346714,0.007306675426661968,-0.0009708931320346892,0.5822550058364868,0.06215619668364525,0.028629476204514503,2.7188808917999268,-0.026762014254927635,0.0009032957023009658,-0.1198292002081871,-0.002189942169934511,0.00030736555345356464,0.0004738302086479962,0.001093653030693531,-0.025451304391026497,-0.0003147487004753202,0.004059740342199802,0.0027264521922916174,0.023193424567580223,0.002629193477332592,-0.004839147906750441,-0.02107425220310688,-0.10301486402750015,32.68855285644531,-8.19778060913086,1.5674872398376465,1.3242520093917847,-8.523232460021973,-0.5910577178001404,9.063054084777832,0.10976237058639526,-0.1550893932580948,-0.0692746639251709,-0.07506024837493896,0.08325204253196716,-0.12622322142124176,0.07664474844932556,-0.15613609552383423,-3.2027812004089355,-0.11409546434879303,15.017258644104004,-0.11410235613584518,0.001434521982446313,40.57252883911133,-14.402318954467773,0.04112522304058075,7.861658096313477,9.048563957214355,-0.013296379707753658,-3.60676646232605,0.009873966686427593,-0.02444399893283844,-0.013105176389217377,-0.0004795326094608754,-0.08704936504364014,-0.027847038581967354,-0.022787675261497498,-0.008545002900063992,3.4910478591918945,-0.011852570809423923,1.997252345085144,-0.03118099272251129,-0.00304296612739563,1.775504469871521,0.10965678095817566,0.15255683660507202,7.158919811248779,-0.5971348881721497,0.00012491224333643913,-0.18403835594654083,0.0009775611106306314,-0.0032406833488494158,-0.00037011835956946015,0.0017973443027585745,0.030024433508515358,-0.0017902844119817019,0.001019200892187655,-0.0014146784087643027,0.21330949664115906,-0.0014118046965450048,-0.0670454353094101,-0.2620399594306946,0.26260140538215637,-23.197303771972656,-19.419355392456055,-0.8618419170379639,-6.430603504180908,-19.568748474121094,0.21614481508731842,-10.621983528137207,-0.17404352128505707,0.38426893949508667,-0.05209832265973091,0.23885338008403778,-0.2873895466327667,0.3329834043979645,-0.2466164529323578,0.3333217203617096,6.385214328765869,0.32889771461486816,14.206449508666992,-0.011255520395934582,0.1093757152557373,-2.8447396755218506,-11.435169219970703,-3.543057441711426,14.727813720703125,-6.156027317047119,-0.08199310302734375,1.9277503490447998,-0.10673212260007858,0.15509845316410065,0.09970764815807343,0.07829604297876358,-0.27331531047821045,0.1301502287387848,-0.09896103292703629,0.1088920310139656,-14.102964401245117,0.11846531927585602,2.4506702423095703,-0.003990744240581989,0.00048115153913386166,0.8527612090110779,-0.02349809929728508,0.08220697939395905,3.443424940109253,-0.24041952192783356,-0.0002556438557803631,-0.40991273522377014,0.0002731112181209028,-0.011424516327679157,0.0018613944994285703,0.00040046917274594307,-0.030022501945495605,0.0005246819346211851,-0.00008658527804072946,0.00201021577231586,0.015169911086559296,0.00042967070476152003,-0.2010970413684845,-0.027677537873387337,0.06688645482063293,2.4842336177825928,-11.406750679016113,-0.7035687565803528,4.122494220733643,2.5997254848480225,0.35954177379608154,-0.8665185570716858,-0.08537447452545166,0.2721647322177887,-0.10667255520820618,0.0383995920419693,-0.25948041677474976,0.21735073626041412,-0.11353541165590286,0.2046596109867096,0.05367528647184372,0.1319679617881775,-7.10195255279541,0.0056915683671832085,0.002050560200586915,0.6710989475250244,0.06378532201051712,0.028311025351285934,2.7948195934295654,-0.012765783816576004,0.0024612678680568933,-0.13512030243873596,0.0038881246000528336,-0.004485044162720442,0.0012745637213811278,0.003229465801268816,-0.0324789360165596,-0.0001727724156808108,0.0043837400153279305,0.003960029222071171,0.019394777715206146,0.0037462094333022833,-0.007310186047106981,0.013875316828489304,0.0016242896672338247,0.7552165985107422,0.13594838976860046,0.023579685017466545,2.8211629390716553,-0.030063187703490257,0.0024302175734192133,-0.13483300805091858,-0.004787706304341555,-0.03484121337532997,0.002683652564883232,0.005913345608860254,-0.02960357628762722,-0.0061624497175216675,0.012786461971700191,0.0002896554069593549,0.11330872029066086,0.0007336324197240174,-0.0022116689942777157,0.0030456436797976494,-0.0014091655611991882,0.4458477795124054,0.08673226088285446,0.032760899513959885,2.414400577545166,-0.06708891689777374,0.0017495474312454462,-0.15325887501239777,0.001952079706825316,-0.005072569940239191,-0.004065546672791243,-0.00011367565457476303,-0.0292368046939373,-0.0011248347582295537,0.0012294179759919643,0.0007793575641699135,0.0758490264415741,-0.0005244423518888652,-0.006239007692784071,0.0023261336609721184,0.0020412334706634283,0.526523768901825,0.048359278589487076,0.02563854493200779,2.731215715408325,-0.023362355306744576,0.0015869431663304567,-0.12014519423246384,-0.004693733528256416,0.0033362037502229214,0.0015060714213177562,0.0045900167897343636,-0.019115887582302094,0.00047277563135139644,0.0063282703049480915,0.006770041771233082,0.04136866703629494,0.006383610423654318,-0.004677034914493561,0.006756965070962906,-0.0038668308407068253,0.6989919543266296,-0.007790691684931517,-0.018117064610123634,2.8347346782684326,-0.04261362925171852,0.0003282110264990479,-0.04867388308048248,-0.002263336908072233,0.0003786784363910556,0.0003480705199763179,-0.0019952792208641768,-0.002938406076282263,-0.0009161869529634714,0.002299258019775152,0.0017276271246373653,0.058964211493730545,0.0010139571968466043,-0.01077208574861288,-0.007281854283064604,-0.0016979142092168331,0.7134838104248047,0.053780559450387955,0.08222323656082153,2.847425937652588,-0.017955133691430092,-0.0011680268216878176,-0.11914695799350739,0.0008072209311649203,-0.003948417492210865,-0.0006874740356579423,-0.0007295094546861947,-0.03776220604777336,-0.04418695345520973,0.00040479848394170403,-0.0007683683070354164,0.014743377454578876,-0.0012791308108717203,-0.008817796595394611,0.0081313606351614,0.003333462867885828,0.5301634073257446,0.09563399851322174,0.024130836129188538,2.67688250541687,-0.034097280353307724,0.0007465438102371991,-0.1325547993183136,-0.0037562325596809387,0.0019604854751378298,0.0011832928285002708,0.004253102000802755,-0.02187865972518921,-0.00040290315519087017,0.011787944473326206,0.004755266476422548,0.008617366664111614,0.004620773252099752,-0.01481632050126791,0.007721146568655968,0.004287812393158674,0.8049973249435425,0.05220600217580795,0.026213059201836586,2.9162180423736572,-0.007582511752843857,0.00274387514218688,-0.14624105393886566,-0.005757290869951248,-0.0015223409282043576,0.0025576709304004908,0.006672723684459925,-0.03353732451796532,0.00002941301318060141,0.00767580745741725,0.00486717140302062,0.053748734295368195,0.006658338941633701,-0.003289247630164027,-0.009643212892115116,0.036149006336927414,-8.98430347442627,0.15310999751091003,0.054973434656858444,3.411586046218872,14.108234405517578,0.09611417353153229,4.895420074462891,-0.05505747348070145,0.07169747352600098,0.026979271322488785,0.019310493022203445,0.009819330647587776,0.07758530229330063,0.00007230522169265896,0.05852571129798889,15.715418815612793,0.05065659433603287,3.812338352203369,0.00804590992629528,0.004237120505422354,0.6062131524085999,0.05260326340794563,0.025695884600281715,2.7349963188171387,-0.041668735444545746,0.0020555679220706224,-0.148419588804245,-0.004934702068567276,-0.0026288724038749933,0.0015372446505352855,0.006516717839986086,-0.03404754400253296,-0.0007458716863766313,0.007969346828758717,0.006614592391997576,0.046297311782836914,0.006453686859458685,-0.004265177063643932,-0.3155284523963928,0.38009047508239746,0.6036316752433777,-9.244832038879395,-1.5487771034240723,6.30173397064209,12.732794761657715,-0.5273719429969788,2.6371653079986572,-0.3441466987133026,0.24175375699996948,0.4334876835346222,0.24734175205230713,-0.19235970079898834,0.25377100706100464,-0.20685610175132751,0.3046151399612427,-7.875387191772461,0.33224472403526306,-3.3615286350250244]},"outputBias":{"rows":20,"columns":1,"weights":[-0.8819953799247742,-0.9503983855247498,0.9045378565788269,7.824298858642578,0.31330353021621704,3.6256911754608154,12.704529762268066,-0.699593722820282,-1.3671942949295044,-0.9217289686203003,-1.0920621156692505,-0.9566519260406494,-0.9123227000236511,-0.8096561431884766,-0.9074140787124634,-0.9705106616020203,-0.9779258966445923,-5.7873640060424805,-0.9947059154510498,-0.5263493657112122]},"cellActivationMatrix":{"rows":20,"columns":1,"weights":[0.005365189164876938,0.1329478621482849,-1.740044355392456,1.3500972986221313,-0.9117522239685059,-1.5741227865219116,-4.457257270812988,-0.43730542063713074,5.156072616577148,-0.1824187934398651,0.23308221995830536,-0.09800849854946136,0.04945818707346916,-0.23100526630878448,0.20200785994529724,-0.05553751066327095,0.2534685730934143,-6.432140350341797,0.16388189792633057,1.4237905740737915]},"cellActivationHidden":{"rows":20,"columns":20,"weights":[-0.045755885541439056,0.000006417392341973027,0.1723300814628601,0.0320630706846714,0.036768391728401184,0.01877766288816929,0.0073855360969901085,0.00040828026249073446,0.13120196759700775,-0.0001572068576933816,0.00007897424075054005,0.00031010303064249456,0.00003288600782980211,-0.03260115906596184,0.00004117194839636795,0.00007245822780532762,0.00012888238416053355,0.060632627457380295,0.0001185130822705105,0.007079576142132282,0.0020129054319113493,-0.00012708234135061502,-0.19268696010112762,-0.023816362023353577,-0.013101781718432903,0.09927007555961609,-0.06046545132994652,-0.000013472717000695411,-0.027829546481370926,0.00004285242175683379,-0.00014574473607353866,-0.000026706955395638943,0.0000018864769799620262,0.00022449730022344738,-0.00005521726779988967,0.00000706147329765372,-0.00001431117289030226,0.0010978284990414977,-0.0000196455221157521,0.03618856519460678,-0.0017177386907860637,0.0000491387618239969,0.5137213468551636,0.08131159096956253,-0.0038983686827123165,2.880265951156616,-0.0005432867910712957,0.00014844471297692508,0.25945645570755005,-0.0002090667258016765,0.000298497878247872,0.00009154784493148327,0.00005256604345049709,0.004508189391344786,0.0001017092727124691,-0.000021323528926586732,0.00013637942902278155,-0.1598331183195114,0.00004526213524513878,0.008426927961409092,-0.09450646489858627,0.004035577178001404,0.5507493019104004,0.5289028286933899,0.224884033203125,-10.711918830871582,0.17671418190002441,0.014820470474660397,0.7183133959770203,0.001767090754583478,0.009798280894756317,0.012073179706931114,0.0002379437501076609,0.1820511370897293,0.01288364827632904,0.006867468357086182,0.011496001854538918,-0.05249558389186859,0.008225216530263424,0.22171072661876678,-0.005256170406937599,-0.0004540923691820353,0.5068727135658264,-0.08664669096469879,-0.35037466883659363,0.37387168407440186,0.0046249995939433575,0.0001240546116605401,-0.24434855580329895,-0.0003407984913792461,0.00034629073343239725,0.0003530086250975728,0.0025794897228479385,-0.08576621860265732,0.0007770571392029524,0.0003340162802487612,0.0003496492572594434,-0.04482100531458855,0.00031940086046233773,0.0016012723790481687,0.0026906037237495184,0.000011114450899185613,1.0982996225357056,-0.03526326268911362,0.02043774724006653,4.561269283294678,0.02964877150952816,-0.0021802380215376616,-0.009469771757721901,0.000589659670367837,-0.0015956274000927806,-0.0018717614002525806,-0.000009788998795556836,-0.008780264295637608,-0.002169588580727577,-0.0004406443622428924,-0.001584893325343728,-0.005202991887927055,-0.000696300994604826,-0.010310329496860504,0.00176617584656924,-0.0025304623413830996,6.8941779136657715,4.249031066894531,0.09869764745235443,14.82442855834961,0.259529173374176,0.015623116865754128,-0.5150765180587769,0.001732859294861555,-0.004195655230432749,-0.001311697531491518,-0.0023253222461789846,0.009171799756586552,-0.002465426456183195,0.0029926267452538013,-0.0026284062769263983,5.105886936187744,-0.002579218242317438,-0.10451094806194305,0.002726227045059204,-0.00008848821744322777,-0.12908713519573212,0.003952765371650457,-0.0164046473801136,-0.17753295600414276,-0.0847630724310875,-0.00003180062412866391,-0.15719278156757355,0.00004384394196677022,-0.00026156200328841805,-0.0001349001395283267,7.73696768874288e-8,0.004531565587967634,-0.0001411741104675457,-0.000018486181943444535,-0.000012312443686823826,-0.036789603531360626,-0.000022698499378748238,-0.04435389116406441,0.022431209683418274,0.000569033669307828,-1.6240283250808716,-0.21823951601982117,0.08449673652648926,2.60564923286438,0.229821115732193,0.002703012665733695,-0.11469148844480515,-0.007416615262627602,0.0008547049365006387,0.004852124024182558,0.0001899197231978178,-0.022861860692501068,0.00048578143469057977,0.0006749703316017985,0.0005630870000459254,-0.04139117896556854,0.0011606678599491715,0.06750825047492981,-0.0029624842572957277,-0.000006725209914293373,0.18116189539432526,0.0369231179356575,0.010305974632501602,-0.08100126683712006,0.0633612871170044,0.00005191538730286993,0.03392162173986435,-0.000036928275221725926,0.00016000866889953613,0.00006015980034135282,-5.6842321782824e-7,-0.0023836083710193634,0.00016122986562550068,-0.0000073412056735833175,0.000005140729172126157,0.010792247951030731,0.000030875646189088,-0.02203109860420227,0.0030486704781651497,0.00003469063449301757,-0.23831918835639954,0.0011747513199225068,-0.009435512125492096,0.10621920973062515,-0.0781608372926712,-0.000043184492824366316,-0.02352120541036129,7.143385687413684e-7,-0.0003899758739862591,-0.00008386730041820556,-6.64266678995773e-7,0.0006107253138907254,-0.0001857580937212333,-0.00006351719639496878,0.000006763574219803559,-0.022407570853829384,0.0000026080570023623295,0.03380873426795006,0.0027846808079630136,-0.000009070003216038458,-0.08020325005054474,-0.03113313391804695,-0.006856856402009726,-0.14493724703788757,-0.09748490154743195,-0.0001144549241871573,-0.025771737098693848,0.00007422235648846254,-0.0002927510067820549,-0.00023298100859392434,-0.000014734638170921244,-0.0033959788270294666,-0.00021993591508362442,0.00001587510996614583,-0.00003143147478112951,0.006711646448820829,-0.00004433805952430703,0.03308890759944916,0.0006889001815579832,-0.0000464595686935354,-0.28533291816711426,0.002474399982020259,-0.02389884553849697,-0.07288189977407455,-0.0578741692006588,-0.000032149797334568575,-0.03452369198203087,0.000058240875659976155,-0.00031567231053486466,-0.000025122504666796885,-0.000015858026017667726,0.014985746704041958,-0.000049970018153544515,3.785325759508851e-7,-0.000003349217195136589,-0.00027541161398403347,-0.00002361759470659308,0.03386027738451958,-0.00305748893879354,-0.00009726561984280124,0.1591467559337616,0.027070511132478714,0.01374878454953432,-0.12920081615447998,0.06062254682183266,0.014692050404846668,-0.03258869796991348,-0.00992678478360176,0.014045843854546547,0.015819592401385307,0.00034285878064110875,-0.022950848564505577,0.01360886450856924,0.008279608562588692,0.014081074856221676,0.02976912260055542,0.010633434168994427,0.003232724731788039,-0.007735077291727066,0.000016243178833974525,-0.1491447538137436,-0.026438524946570396,0.006846786476671696,0.18861116468906403,-0.06678555905818939,-0.00005652716936310753,-0.0010279573034495115,0.00001486413566453848,-0.00003768468741327524,-0.00011952771455980837,-0.0000028377960461511975,0.0015030098147690296,-0.0006805072189308703,0.00001635831722524017,-0.00001144424095400609,0.004862334579229355,-0.00001527089625597,0.03242689371109009,0.0009906691266223788,0.00004864379661739804,0.2920098602771759,-0.01424679160118103,-0.01853329874575138,-0.014800304546952248,0.04145245999097824,-0.00003183784065186046,-0.035257916897535324,0.000024477902115904726,-0.00028689534519799054,-0.00004553363396553323,0.000016725922250770964,0.009722123853862286,-0.00005252033588476479,-0.0001115917184506543,0.000018575288777356036,0.006865574512630701,0.00001678301669016946,-0.019485952332615852,0.002955077914521098,0.000018684442693484016,-0.1534048616886139,-0.012159042060375214,-0.01084192842245102,0.1794489175081253,-0.0733940601348877,-0.00006006479088682681,-0.030077438801527023,0.00002331854193471372,-0.00023388552654068917,-0.00008619484287919477,0.000010089939678437077,0.0025585959665477276,-0.00016156560741364956,8.897508791960718e-7,-0.000004399320459924638,-0.006833180319517851,-0.000015005979548732284,0.03025352954864502,-0.008193012326955795,0.004157156217843294,-1.6368274688720703,-6.565998077392578,0.21475163102149963,-0.19087035953998566,0.5818014144897461,-0.005518138408660889,0.03165512531995773,-0.0023762632627040148,-0.0009631049470044672,-0.007663067430257797,-0.0003720112727023661,-0.03451630473136902,-0.006383311934769154,0.0023984527215361595,0.00021633610595017672,0.26049432158470154,0.00301397405564785,0.02099083736538887,0.0028977887704968452,0.00001929057361849118,-0.17702895402908325,-0.009614401496946812,-0.008852975443005562,0.12566258013248444,-0.04658680781722069,-0.00003762422420550138,-0.028994696214795113,0.0000462992065877188,-0.0002846639254130423,-0.00006692247552564368,0.00000309930942421488,0.0016752134542912245,-0.00015462264127563685,0.000002379719717282569,-0.000008146203072101343,-0.0075910273008048534,-0.000025019171516760252,0.028168141841888428,-0.012223812751471996,0.019755681976675987,-14.667415618896484,-3.7502987384796143,-1.738486409187317,4.674919605255127,7.341992378234863,-0.01591065153479576,-0.44345787167549133,-0.016684794798493385,0.023545576259493828,0.007233696989715099,0.013552586548030376,-0.012492605485022068,-0.003563703503459692,-0.017503846436738968,0.019572729244828224,2.954336404800415,0.019794251769781113,-0.8751000761985779]},"cellActivationBias":{"rows":20,"columns":1,"weights":[0.004992355592548847,0.10039591044187546,-0.6087274551391602,-7.83991003036499,0.6299213767051697,-0.21013744175434113,18.186901092529297,-0.21318159997463226,-0.4569784104824066,-0.08678213506937027,0.12515386939048767,-0.11459082365036011,-0.06801510602235794,-0.1392408162355423,0.19749601185321808,-0.017337562516331673,0.20415270328521729,-0.1706313043832779,0.12761680781841278,2.752051591873169]}}],"outputConnector":{"rows":1,"columns":20,"weights":[0.06683605909347534,-0.08799757063388824,0.4797739088535309,-0.49952495098114014,0.47016751766204834,6.797885894775391,-0.1405465006828308,0.012821575626730919,2.9694576263427734,0.08160232752561569,-0.08379877358675003,-0.03816617652773857,-0.09497790783643723,0.08118387311697006,-0.07916658371686935,0.10622067749500275,-0.06334323436021805,-2.6594862937927246,-0.08690847456455231,1.51420259475708]},"output":{"rows":1,"columns":1,"weights":[7.723098278045654]},"inputLookup":{"h":0,"d":1,"a":2},"inputLookupLength":3,"outputLookup":{"fthg":0,"ftag":1},"outputLookupLength":2};
  var output = [];
  var states = [];
  var prevStates;
  var state;
  var max = input.length + 1;
  for (var _i = 0; _i < max; _i++) {
    prevStates = states;
    states = [];
    states[0] = {
      name: 'forwardFn',
      left: undefined,
      right: undefined,
      product: new Matrix(1, 1)
    };
    states[1] = {
      name: 'multiply',
      left: json.hiddenLayers[0].inputMatrix,
      right: states[0].product,
      product: new Matrix(20, 1)
    };
    states[2] = {
      name: 'multiply',
      left: json.hiddenLayers[0].inputHidden,
      right: typeof prevStates[25] === 'object' ? prevStates[25].product : new Matrix(20, 1),
      product: new Matrix(20, 1)
    };
    states[3] = {
      name: 'add',
      left: states[1].product,
      right: states[2].product,
      product: new Matrix(20, 1)
    };
    states[4] = {
      name: 'add',
      left: states[3].product,
      right: json.hiddenLayers[0].inputBias,
      product: new Matrix(20, 1)
    };
    states[5] = {
      name: 'sigmoid',
      left: states[4].product,
      right: undefined,
      product: new Matrix(20, 1)
    };
    states[6] = {
      name: 'multiply',
      left: json.hiddenLayers[0].forgetMatrix,
      right: states[0].product,
      product: new Matrix(20, 1)
    };
    states[7] = {
      name: 'multiply',
      left: json.hiddenLayers[0].forgetHidden,
      right: states[2].right,
      product: new Matrix(20, 1)
    };
    states[8] = {
      name: 'add',
      left: states[6].product,
      right: states[7].product,
      product: new Matrix(20, 1)
    };
    states[9] = {
      name: 'add',
      left: states[8].product,
      right: json.hiddenLayers[0].forgetBias,
      product: new Matrix(20, 1)
    };
    states[10] = {
      name: 'sigmoid',
      left: states[9].product,
      right: undefined,
      product: new Matrix(20, 1)
    };
    states[11] = {
      name: 'multiply',
      left: json.hiddenLayers[0].outputMatrix,
      right: states[0].product,
      product: new Matrix(20, 1)
    };
    states[12] = {
      name: 'multiply',
      left: json.hiddenLayers[0].outputHidden,
      right: states[2].right,
      product: new Matrix(20, 1)
    };
    states[13] = {
      name: 'add',
      left: states[11].product,
      right: states[12].product,
      product: new Matrix(20, 1)
    };
    states[14] = {
      name: 'add',
      left: states[13].product,
      right: json.hiddenLayers[0].outputBias,
      product: new Matrix(20, 1)
    };
    states[15] = {
      name: 'sigmoid',
      left: states[14].product,
      right: undefined,
      product: new Matrix(20, 1)
    };
    states[16] = {
      name: 'multiply',
      left: json.hiddenLayers[0].cellActivationMatrix,
      right: states[0].product,
      product: new Matrix(20, 1)
    };
    states[17] = {
      name: 'multiply',
      left: json.hiddenLayers[0].cellActivationHidden,
      right: states[2].right,
      product: new Matrix(20, 1)
    };
    states[18] = {
      name: 'add',
      left: states[16].product,
      right: states[17].product,
      product: new Matrix(20, 1)
    };
    states[19] = {
      name: 'add',
      left: states[18].product,
      right: json.hiddenLayers[0].cellActivationBias,
      product: new Matrix(20, 1)
    };
    states[20] = {
      name: 'tanh',
      left: states[19].product,
      right: undefined,
      product: new Matrix(20, 1)
    };
    states[21] = {
      name: 'multiplyElement',
      left: states[10].product,
      right: states[2].right,
      product: new Matrix(20, 1)
    };
    states[22] = {
      name: 'multiplyElement',
      left: states[5].product,
      right: states[20].product,
      product: new Matrix(20, 1)
    };
    states[23] = {
      name: 'add',
      left: states[21].product,
      right: states[22].product,
      product: new Matrix(20, 1)
    };
    states[24] = {
      name: 'tanh',
      left: states[23].product,
      right: undefined,
      product: new Matrix(20, 1)
    };
    states[25] = {
      name: 'multiplyElement',
      left: states[15].product,
      right: states[24].product,
      product: new Matrix(20, 1)
    };
    states[26] = {
      name: 'multiply',
      left: json.outputConnector,
      right: states[25].product,
      product: new Matrix(1, 1)
    };
    states[27] = {
      name: 'add',
      left: states[26].product,
      right: json.output,
      product: new Matrix(1, 1)
    };
    for (var stateIndex = 0, stateMax = 28; stateIndex < stateMax; stateIndex++) {
      state = states[stateIndex];
      var product = state.product;
      var left = state.left;
      var right = state.right;

      switch (state.name) {
case 'forwardFn':
product.weights = _i < input.length ? input[_i]: prevStates[prevStates.length - 1].product.weights;
break;
        case 'multiply': //compiled from src/recurrent/matrix/multiply.js
          
            const leftRows = left.rows;
            const leftColumns = left.columns;
            const rightColumns = right.columns;
            // loop over rows of left
            for (let leftRow = 0; leftRow < leftRows; leftRow++) {
                const leftRowBase = leftColumns * leftRow;
                const rightRowBase = rightColumns * leftRow;
                // loop over cols of right
                for (let rightColumn = 0; rightColumn < rightColumns; rightColumn++) {
                    // dot product loop
                    let dot = 0;
                    // loop over columns of left
                    for (let leftColumn = 0; leftColumn < leftColumns; leftColumn++) {
                        const rightColumnBase = rightColumns * leftColumn;
                        const leftIndex = leftRowBase + leftColumn;
                        const rightIndex = rightColumnBase + rightColumn;
                        dot += left.weights[leftIndex] * right.weights[rightIndex];
                        
                        
                    }
                    product.weights[rightRowBase + rightColumn] = dot;
                }
            }
        
          break;
        case 'add': //compiled from src/recurrent/matrix/add.js
          
            for (let i = 0; i < left.weights.length; i++) {
                product.weights[i] = left.weights[i] + right.weights[i];
                
            }
        
          break;
        case 'sigmoid': //compiled from src/recurrent/matrix/sigmoid.js
          
            // sigmoid nonlinearity
            for (let i = 0; i < left.weights.length; i++) {
                product.weights[i] = 1 / (1 + Math.exp(-left.weights[i]));
                
            }
        
          break;
        case 'tanh': //compiled from src/recurrent/matrix/tanh.js
          
            // tanh nonlinearity
            for (let i = 0; i < left.weights.length; i++) {
                product.weights[i] = Math.tanh(left.weights[i]);
                
            }
        
          break;
        case 'multiplyElement': //compiled from src/recurrent/matrix/multiply-element.js
          
            const { weights } = left;
            for (let i = 0; i < weights.length; i++) {
                product.weights[i] = left.weights[i] * right.weights[i];
                
            }
        
          break;
      }
    }
    if (_i >= input.length - 1) { output.push(state.product.weights); }
  }
  return lookupOutput(output);
  function lookupInput(input) {
          var table = {"h":0,"d":1,"a":2};
          var result = [];
          for (var p in table) {
            result.push(Float32Array.from([input[p]]));
          }
          return result;
        }
  function lookupOutput(output) {
          var table = {"fthg":0,"ftag":1};
          var result = {};
          for (var p in table) {
            result[p] = output[table[p]][0];
          }
          return result;
        }

  function Matrix(rows, columns) {
    this.rows = rows;
    this.columns = columns;
    this.weights = zeros(rows * columns);
  }
  function zeros$1(size) {
    return new Float32Array(size);
}
  function softmax(matrix) {
    // probability volume
    const result = new Matrix(matrix.rows, matrix.columns);
    let maxVal = -999999;
    for (let i = 0; i < matrix.weights.length; i++) {
        if (matrix.weights[i] > maxVal) {
            maxVal = matrix.weights[i];
        }
    }
    let s = 0;
    for (let i = 0; i < matrix.weights.length; i++) {
        result.weights[i] = Math.exp(matrix.weights[i] - maxVal);
        s += result.weights[i];
    }
    for (let i = 0; i < matrix.weights.length; i++) {
        result.weights[i] /= s;
    }
    // no backward pass here needed
    // since we will use the computed probabilities outside
    // to set gradients directly on m
    return result;
}
  function randomFloat(min, max) {
    return Math.random() * (max - min) + min;
}
  function sampleI(matrix) {
    // sample argmax from w, assuming w are
    // probabilities that sum to one
    const r = randomFloat(0, 1);
    const w = matrix.weights;
    let x = 0;
    let i = 0;
    while (true) {
        x += w[i];
        if (x > r) {
            return i;
        }
        i++;
    }
}
  function maxI(matrix) {
    // argmax of array w
    const { weights } = matrix;
    let maxv = weights[0];
    let maxix = 0;
    for (let i = 1; i < weights.length; i++) {
        const v = weights[i];
        if (v < maxv)
            continue;
        maxix = i;
        maxv = v;
    }
    return maxix;
}
};